FANN_FLO_1.1
3 0.700000 1.000000 0 4 4 5.00000000000000000000e-01 5.00000000000000000000e-01
129 257 5 
0 0 0 0 0 0 0 0 0 0 0 0 0 0 0 0 0 0 0 0 0 0 0 0 0 0 0 0 0 0 0 0 0 0 0 0 0 0 0 0 0 0 0 0 0 0 0 0 0 0 0 0 0 0 0 0 0 0 0 0 0 0 0 0 0 0 0 0 0 0 0 0 0 0 0 0 0 0 0 0 0 0 0 0 0 0 0 0 0 0 0 0 0 0 0 0 0 0 0 0 0 0 0 0 0 0 0 0 0 0 0 0 0 0 0 0 0 0 0 0 0 0 0 0 0 0 0 0 0 
129 129 129 129 129 129 129 129 129 129 129 129 129 129 129 129 129 129 129 129 129 129 129 129 129 129 129 129 129 129 129 129 129 129 129 129 129 129 129 129 129 129 129 129 129 129 129 129 129 129 129 129 129 129 129 129 129 129 129 129 129 129 129 129 129 129 129 129 129 129 129 129 129 129 129 129 129 129 129 129 129 129 129 129 129 129 129 129 129 129 129 129 129 129 129 129 129 129 129 129 129 129 129 129 129 129 129 129 129 129 129 129 129 129 129 129 129 129 129 129 129 129 129 129 129 129 129 129 129 129 129 129 129 129 129 129 129 129 129 129 129 129 129 129 129 129 129 129 129 129 129 129 129 129 129 129 129 129 129 129 129 129 129 129 129 129 129 129 129 129 129 129 129 129 129 129 129 129 129 129 129 129 129 129 129 129 129 129 129 129 129 129 129 129 129 129 129 129 129 129 129 129 129 129 129 129 129 129 129 129 129 129 129 129 129 129 129 129 129 129 129 129 129 129 129 129 129 129 129 129 129 129 129 129 129 129 129 129 129 129 129 129 129 129 129 129 129 129 129 129 129 129 129 129 129 129 0 
257 257 257 257 0 
(0 9.42586362361907958984e-01) (1 8.61776709556579589844e-01) (2 8.40775728225708007812e-01) (3 3.70611220598220825195e-01) (4 3.79084676504135131836e-01) (5 2.42472499608993530273e-01) (6 4.27496135234832763672e-01) (7 5.63203155994415283203e-01) (8 5.03954589366912841797e-01) (9 3.10919493436813354492e-01) (10 2.15508401393890380859e-01) (11 3.94516766071319580078e-01) (12 9.85398113727569580078e-01) (13 8.92471492290496826172e-01) (14 4.29212450981140136719e-01) (15 6.30906671285629272461e-02) (16 5.61080694198608398438e-01) (17 4.28787171840667724609e-01) (18 5.04163265228271484375e-01) (19 1.96970149874687194824e-01) (20 3.76593559980392456055e-01) (21 3.74855726957321166992e-01) (22 4.95906323194503784180e-01) (23 4.01340782642364501953e-01) (24 4.00793284177780151367e-01) (25 3.54480952024459838867e-01) (26 8.19032073020935058594e-01) (27 9.93916749954223632812e-01) (28 3.16408187150955200195e-01) (29 3.40476006269454956055e-01) (30 2.22508475184440612793e-01) (31 4.28694009780883789062e-01) (32 3.56047451496124267578e-01) (33 5.94932496547698974609e-01) (34 1.77120164036750793457e-01) (35 3.26478123664855957031e-01) (36 3.06313216686248779297e-01) (37 9.79279220104217529297e-01) (38 9.88378822803497314453e-01) (39 3.93287181854248046875e-01) (40 4.58065599203109741211e-01) (41 3.30669581890106201172e-01) (42 4.68461930751800537109e-01) (43 3.97522687911987304688e-01) (44 4.23491984605789184570e-01) (45 2.22558051347732543945e-01) (46 5.68915784358978271484e-01) (47 4.53348577022552490234e-01) (48 5.34482061862945556641e-01) (49 1.10740147531032562256e-01) (50 4.63910520076751708984e-01) (51 8.35150241851806640625e-01) (52 8.40854048728942871094e-01) (53 3.60756725072860717773e-01) (54 3.71028304100036621094e-01) (55 3.98484021425247192383e-01) (56 3.70520740747451782227e-01) (57 3.98996859788894653320e-01) (58 4.27180528640747070312e-01) (59 2.53670811653137207031e-01) (60 2.69556879997253417969e-01) (61 5.22373795509338378906e-01) (62 8.15127611160278320312e-01) (63 9.39394950866699218750e-01) (64 9.49672460556030273438e-01) (65 8.94511163234710693359e-01) (66 8.58177483081817626953e-01) (67 9.34690356254577636719e-01) (68 7.80803859233856201172e-01) (69 8.81774663925170898438e-01) (70 8.94316375255584716797e-01) (71 8.21133315563201904297e-01) (72 8.72316360473632812500e-01) (73 8.06328535079956054688e-01) (74 9.22988295555114746094e-01) (75 7.99921333789825439453e-01) (76 8.14518988132476806641e-01) (77 8.23155224323272705078e-01) (78 8.21045517921447753906e-01) (79 2.24479481577873229980e-01) (80 8.59495341777801513672e-01) (81 7.60868549346923828125e-01) (82 9.81619596481323242188e-01) (83 7.64751553535461425781e-01) (84 1.28292477130889892578e+00) (85 8.61598253250122070312e-01) (86 9.66911435127258300781e-01) (87 8.92093956470489501953e-01) (88 8.38225305080413818359e-01) (89 7.98211157321929931641e-01) (90 6.79305195808410644531e-01) (91 9.08281743526458740234e-01) (92 7.58066892623901367188e-01) (93 9.05800342559814453125e-01) (94 8.00337195396423339844e-01) (95 8.83337914943695068359e-01) (96 9.28840875625610351562e-01) (97 8.70416045188903808594e-01) (98 7.33228981494903564453e-01) (99 8.68996560573577880859e-01) (100 8.41887354850769042969e-01) (101 9.05246853828430175781e-01) (102 7.43770003318786621094e-01) (103 8.14732134342193603516e-01) (104 7.18590974807739257812e-01) (105 7.78591275215148925781e-01) (106 7.88096070289611816406e-01) (107 8.17539155483245849609e-01) (108 1.14428007602691650391e+00) (109 8.00601601600646972656e-01) (110 9.64371681213378906250e-01) (111 7.57396042346954345703e-01) (112 9.49464082717895507812e-01) (113 2.40532204508781433105e-01) (114 8.34491550922393798828e-01) (115 7.45799958705902099609e-01) (116 9.24121141433715820312e-01) (117 7.60309338569641113281e-01) (118 7.86287307739257812500e-01) (119 8.69556546211242675781e-01) (120 8.72042655944824218750e-01) (121 8.27888727188110351562e-01) (122 8.14796984195709228516e-01) (123 7.57448613643646240234e-01) (124 8.43527495861053466797e-01) (125 9.00820016860961914062e-01) (126 7.52620279788970947266e-01) (127 8.77023875713348388672e-01) (128 1.54251500964164733887e-01) (0 -2.53932774066925048828e-02) (1 3.88819314539432525635e-02) (2 5.21266311407089233398e-02) (3 -9.56101641058921813965e-02) (4 1.10760807991027832031e-01) (5 8.28801244497299194336e-02) (6 -1.29926651716232299805e-01) (7 -8.75280350446701049805e-02) (8 7.88748711347579956055e-02) (9 -1.18387136608362197876e-02) (10 -5.20458109676837921143e-02) (11 -7.49234901741147041321e-03) (12 -1.00210264325141906738e-01) (13 3.83866690099239349365e-02) (14 -8.94450470805168151855e-02) (15 2.74104867130517959595e-02) (16 7.52885267138481140137e-02) (17 1.10401101410388946533e-02) (18 -6.97667971253395080566e-02) (19 -1.82061828672885894775e-02) (20 1.82203277945518493652e-02) (21 5.95872104167938232422e-02) (22 -9.99711379408836364746e-02) (23 8.18109959363937377930e-02) (24 -7.03825801610946655273e-02) (25 -7.79300332069396972656e-02) (26 8.93361214548349380493e-03) (27 6.89832344651222229004e-02) (28 -4.49623279273509979248e-02) (29 7.56291151046752929688e-02) (30 5.93797303736209869385e-02) (31 -2.98676658421754837036e-02) (32 3.82856465876102447510e-02) (33 -6.97940140962600708008e-02) (34 1.06612620875239372253e-02) (35 -7.22433067858219146729e-03) (36 -4.79124598205089569092e-02) (37 -6.47073332220315933228e-03) (38 6.37483224272727966309e-02) (39 -5.47319762408733367920e-02) (40 8.91826674342155456543e-02) (41 1.02801419794559478760e-01) (42 2.51257861964404582977e-03) (43 9.76588502526283264160e-02) (44 -1.23839927837252616882e-02) (45 3.83001528680324554443e-02) (46 -5.69480806589126586914e-02) (47 1.53125971555709838867e-02) (48 -1.07431098818778991699e-01) (49 7.26683214306831359863e-02) (50 5.93652948737144470215e-02) (51 7.85831511020660400391e-02) (52 -3.73360812664031982422e-02) (53 8.62685367465019226074e-02) (54 1.48482061922550201416e-02) (55 4.53033368103206157684e-04) (56 6.84020817279815673828e-02) (57 -1.21737658977508544922e-01) (58 -6.38516694307327270508e-02) (59 -8.13782215118408203125e-02) (60 1.13168999552726745605e-01) (61 -8.36497917771339416504e-02) (62 6.34851530194282531738e-02) (63 2.22605075687170028687e-02) (64 2.83786635845899581909e-02) (65 -6.89088851213455200195e-02) (66 -9.94465947151184082031e-02) (67 3.41551867313683032990e-03) (68 3.96474711596965789795e-02) (69 6.13042823970317840576e-02) (70 5.48582524061203002930e-02) (71 -2.12917421013116836548e-02) (72 9.72258001565933227539e-02) (73 9.94930416345596313477e-03) (74 7.31830373406410217285e-02) (75 2.23935339599847793579e-02) (76 1.32602021098136901855e-01) (77 1.51914879679679870605e-01) (78 8.92634838819503784180e-02) (79 2.71004706621170043945e-01) (80 -1.24325547367334365845e-02) (81 7.72930383682250976562e-02) (82 4.55118119716644287109e-02) (83 9.83728542923927307129e-02) (84 5.96129894256591796875e-03) (85 -2.42857243865728378296e-02) (86 -6.55286386609077453613e-02) (87 -2.98988018184900283813e-02) (88 -2.37845499068498611450e-02) (89 3.56535911560058593750e-02) (90 2.52964836545288562775e-03) (91 -4.69270981848239898682e-02) (92 4.12262640893459320068e-02) (93 -1.05756811797618865967e-01) (94 7.10889473557472229004e-02) (95 2.62216199189424514771e-02) (96 -1.05897046625614166260e-01) (97 3.45933367498219013214e-03) (98 1.04773044586181640625e-02) (99 1.77326351404190063477e-02) (100 4.07268479466438293457e-02) (101 -5.66145740449428558350e-02) (102 -5.58898709714412689209e-02) (103 7.79783679172396659851e-03) (104 2.25866194814443588257e-02) (105 3.61890494823455810547e-02) (106 3.60010452568531036377e-02) (107 1.54447127133607864380e-02) (108 1.40644628554582595825e-02) (109 4.39846515655517578125e-02) (110 -4.28504357114434242249e-03) (111 1.26718342304229736328e-01) (112 1.08233809471130371094e-01) (113 9.32629108428955078125e-02) (114 3.91849577426910400391e-02) (115 6.08142390847206115723e-02) (116 1.55157130211591720581e-02) (117 1.03847362101078033447e-01) (118 1.04192063212394714355e-01) (119 7.71637931466102600098e-02) (120 -8.40424839407205581665e-03) (121 -1.06546230614185333252e-01) (122 9.37629863619804382324e-02) (123 8.55458229780197143555e-02) (124 -5.09725771844387054443e-02) (125 4.36983853578567504883e-02) (126 6.89278468489646911621e-02) (127 -3.96150127053260803223e-02) (128 2.69196867942810058594e-01) (0 7.90750831365585327148e-02) (1 2.14041441679000854492e-01) (2 2.22907960414886474609e-02) (3 1.41399875283241271973e-01) (4 -3.54344807565212249756e-02) (5 1.13316752016544342041e-01) (6 5.17492592334747314453e-02) (7 1.75521388649940490723e-01) (8 1.22842267155647277832e-01) (9 1.20522111654281616211e-01) (10 -3.53767424821853637695e-02) (11 1.37335047125816345215e-01) (12 1.55394021421670913696e-02) (13 1.32833257317543029785e-01) (14 1.63301080465316772461e-01) (15 -1.16557918488979339600e-01) (16 9.75894853472709655762e-02) (17 1.96759924292564392090e-02) (18 1.31463527679443359375e-01) (19 1.55590742826461791992e-01) (20 1.70894861221313476562e-01) (21 2.29149851948022842407e-02) (22 7.47673586010932922363e-02) (23 1.82008698582649230957e-01) (24 1.84827327728271484375e-01) (25 6.07304833829402923584e-03) (26 1.82628765702247619629e-01) (27 1.79306417703628540039e-01) (28 1.69907920062541961670e-02) (29 5.66282980144023895264e-02) (30 3.66875156760215759277e-02) (31 1.68698325753211975098e-01) (32 2.24700585007667541504e-01) (33 2.01503947377204895020e-01) (34 -1.61119941622018814087e-02) (35 2.98513062298297882080e-02) (36 6.86603635549545288086e-02) (37 8.30702707171440124512e-02) (38 1.22984431684017181396e-01) (39 1.15081593394279479980e-01) (40 1.61871567368507385254e-01) (41 1.53480038046836853027e-01) (42 1.33025214076042175293e-01) (43 1.92413717508316040039e-01) (44 1.19976893067359924316e-01) (45 2.41461489349603652954e-02) (46 5.10513521730899810791e-02) (47 1.53327286243438720703e-01) (48 1.28078296780586242676e-01) (49 -4.22449149191379547119e-02) (50 1.58668980002403259277e-01) (51 1.05823986232280731201e-02) (52 1.20848484337329864502e-01) (53 -2.91539542376995086670e-02) (54 -3.79940941929817199707e-02) (55 1.08196340501308441162e-01) (56 7.18629732728004455566e-02) (57 2.42894113063812255859e-01) (58 7.62400925159454345703e-02) (59 9.41205490380525588989e-03) (60 -1.53597537428140640259e-02) (61 1.40828326344490051270e-01) (62 9.16121825575828552246e-02) (63 6.38152658939361572266e-02) (64 3.83005924522876739502e-02) (65 1.96086034178733825684e-01) (66 7.33663290739059448242e-02) (67 2.05185189843177795410e-01) (68 1.20232485234737396240e-01) (69 7.95170217752456665039e-02) (70 2.95833963900804519653e-02) (71 1.56247824430465698242e-01) (72 9.94480699300765991211e-02) (73 1.64631187915802001953e-01) (74 1.41922950744628906250e-01) (75 1.61245241761207580566e-01) (76 1.83268804103136062622e-02) (77 1.23911440372467041016e-01) (78 1.44773229956626892090e-01) (79 -2.09503859281539916992e-01) (80 1.09432473778724670410e-01) (81 1.26870587468147277832e-01) (82 1.99323058128356933594e-01) (83 2.84441951662302017212e-02) (84 7.24964514374732971191e-02) (85 1.54064476490020751953e-01) (86 1.11964143812656402588e-01) (87 1.32610380649566650391e-01) (88 1.07879571616649627686e-01) (89 1.03410780429840087891e-01) (90 1.53995364904403686523e-01) (91 2.10432335734367370605e-01) (92 8.01054313778877258301e-02) (93 8.82743075489997863770e-02) (94 3.55315767228603363037e-02) (95 2.04335078597068786621e-01) (96 8.75920429825782775879e-02) (97 9.24220159649848937988e-02) (98 -1.25967785716056823730e-01) (99 1.02503346279263496399e-02) (100 1.65396004915237426758e-01) (101 1.11448369920253753662e-01) (102 1.59481763839721679688e-01) (103 4.05025854706764221191e-03) (104 -2.34526433050632476807e-02) (105 1.20413266122341156006e-01) (106 6.05542324483394622803e-02) (107 2.62962039560079574585e-02) (108 4.60148118436336517334e-02) (109 3.74046228826045989990e-02) (110 1.77374243736267089844e-01) (111 1.56410142779350280762e-01) (112 1.34065479040145874023e-01) (113 -2.50238507986068725586e-01) (114 9.80425104498863220215e-02) (115 1.49574503302574157715e-01) (116 1.41656231135129928589e-02) (117 1.56315833330154418945e-01) (118 1.08069270849227905273e-01) (119 1.65205985307693481445e-01) (120 1.37556657195091247559e-01) (121 7.32434615492820739746e-02) (122 9.74167883396148681641e-02) (123 1.25640869140625000000e-01) (124 1.00133486092090606689e-01) (125 1.94063216447830200195e-01) (126 1.65442138910293579102e-01) (127 2.48822391033172607422e-01) (128 -2.76789274066686630249e-02) (0 1.25208899378776550293e-01) (1 3.31814944744110107422e-01) (2 1.36974737048149108887e-01) (3 1.63235574960708618164e-01) (4 2.06861615180969238281e-01) (5 1.96860194206237792969e-01) (6 2.12792411446571350098e-01) (7 1.24188339710235595703e+00) (8 4.61864203214645385742e-01) (9 1.39172270894050598145e-01) (10 3.37656646966934204102e-01) (11 2.41919964551925659180e-01) (12 3.83306771516799926758e-01) (13 2.19009146094322204590e-01) (14 3.78773510456085205078e-01) (15 -1.05510674417018890381e-01) (16 4.64876621961593627930e-01) (17 3.02780151367187500000e-01) (18 2.83520579338073730469e-01) (19 3.16342771053314208984e-01) (20 2.97622829675674438477e-01) (21 3.35454523563385009766e-01) (22 3.67426097393035888672e-01) (23 3.42664271593093872070e-01) (24 2.23205313086509704590e-01) (25 2.49129295349121093750e-01) (26 2.81177282333374023438e-01) (27 4.20917242765426635742e-01) (28 1.58534079790115356445e-01) (29 3.32258403301239013672e-01) (30 8.26850980520248413086e-02) (31 4.26012814044952392578e-01) (32 2.47291162610054016113e-01) (33 3.91243577003479003906e-01) (34 1.73981055617332458496e-01) (35 2.96751886606216430664e-01) (36 1.59566134214401245117e-01) (37 4.22233730554580688477e-01) (38 3.21193695068359375000e-01) (39 2.94134527444839477539e-01) (40 3.47408622503280639648e-01) (41 3.12637865543365478516e-01) (42 3.16145390272140502930e-01) (43 3.16683620214462280273e-01) (44 2.42670580744743347168e-01) (45 1.77701205015182495117e-01) (46 4.17195290327072143555e-01) (47 1.57427713274955749512e-01) (48 2.78841555118560791016e-01) (49 4.48537804186344146729e-02) (50 1.94024786353111267090e-01) (51 2.17564135789871215820e-01) (52 3.49762439727783203125e-01) (53 2.40190088748931884766e-01) (54 2.31900319457054138184e-01) (55 2.90787130594253540039e-01) (56 3.37298244237899780273e-01) (57 1.34300923347473144531e+00) (58 3.43759834766387939453e-01) (59 1.16551712155342102051e-01) (60 1.46177485585212707520e-01) (61 1.63687050342559814453e-01) (62 2.50236600637435913086e-01) (63 1.57884910702705383301e-01) (64 1.73008546233177185059e-01) (65 4.04731243848800659180e-01) (66 2.34670251607894897461e-01) (67 2.54730403423309326172e-01) (68 1.23931981623172760010e-01) (69 1.49545833468437194824e-01) (70 1.46896421909332275391e-01) (71 1.96299478411674499512e-01) (72 1.47734239697456359863e-01) (73 2.66856580972671508789e-01) (74 1.03598758578300476074e-01) (75 1.25490307807922363281e-01) (76 2.72293806076049804688e-01) (77 1.95833429694175720215e-01) (78 1.74187198281288146973e-01) (79 -5.97712472081184387207e-02) (80 3.82669776678085327148e-01) (81 1.52773693203926086426e-01) (82 2.75258809328079223633e-01) (83 1.37203499674797058105e-01) (84 3.19043993949890136719e-01) (85 2.71233618259429931641e-01) (86 1.94077968597412109375e-01) (87 3.21713894605636596680e-01) (88 2.21942603588104248047e-01) (89 2.22520023584365844727e-01) (90 2.83055782318115234375e-01) (91 1.61416485905647277832e-01) (92 2.65189498662948608398e-01) (93 3.41570913791656494141e-01) (94 1.34588956832885742188e-01) (95 4.11726802587509155273e-01) (96 3.43709737062454223633e-01) (97 4.95430916547775268555e-01) (98 2.88161188364028930664e-01) (99 3.43338966369628906250e-01) (100 1.42245367169380187988e-01) (101 2.13228881359100341797e-01) (102 1.26631081104278564453e-01) (103 1.11576266586780548096e-01) (104 1.08520261943340301514e-01) (105 1.95717468857765197754e-01) (106 2.64568388462066650391e-01) (107 3.13121140003204345703e-01) (108 1.55082762241363525391e-01) (109 2.53561705350875854492e-01) (110 3.51278245449066162109e-01) (111 2.08110526204109191895e-01) (112 2.80663460493087768555e-01) (113 -2.20224887132644653320e-01) (114 2.59866774082183837891e-01) (115 2.23665788769721984863e-01) (116 2.48994067311286926270e-01) (117 2.44680449366569519043e-01) (118 2.55019515752792358398e-01) (119 1.99084296822547912598e-01) (120 2.46423527598381042480e-01) (121 2.83816605806350708008e-01) (122 1.54440492391586303711e-01) (123 1.33927017450332641602e-01) (124 1.68751895427703857422e-01) (125 2.52593606710433959961e-01) (126 2.57949501276016235352e-01) (127 2.97384560108184814453e-01) (128 -8.98869097232818603516e-01) (0 7.90517210960388183594e-01) (1 7.38879203796386718750e-01) (2 4.30142492055892944336e-01) (3 4.26667243242263793945e-01) (4 3.09449583292007446289e-01) (5 4.57565188407897949219e-01) (6 4.53049808740615844727e-01) (7 6.24422311782836914062e-01) (8 5.88699936866760253906e-01) (9 5.22081792354583740234e-01) (10 3.98503929376602172852e-01) (11 5.45836865901947021484e-01) (12 5.58738708496093750000e-01) (13 3.59730064868927001953e-01) (14 6.07315003871917724609e-01) (15 1.19940944015979766846e-01) (16 6.20370030403137207031e-01) (17 5.62566220760345458984e-01) (18 1.48125684261322021484e+00) (19 4.61756080389022827148e-01) (20 5.74890375137329101562e-01) (21 5.39601504802703857422e-01) (22 5.01070678234100341797e-01) (23 5.29887735843658447266e-01) (24 4.01680469512939453125e-01) (25 4.57473963499069213867e-01) (26 3.89529824256896972656e-01) (27 5.96807420253753662109e-01) (28 4.04107719659805297852e-01) (29 4.71529215574264526367e-01) (30 2.90545701980590820312e-01) (31 9.84604597091674804688e-01) (32 4.00919526815414428711e-01) (33 9.85399186611175537109e-01) (34 4.03538107872009277344e-01) (35 4.73631829023361206055e-01) (36 4.82794910669326782227e-01) (37 5.97758948802947998047e-01) (38 4.78288292884826660156e-01) (39 4.93757635354995727539e-01) (40 5.08226096630096435547e-01) (41 6.28376543521881103516e-01) (42 5.70659041404724121094e-01) (43 4.51645374298095703125e-01) (44 6.39675498008728027344e-01) (45 4.24533098936080932617e-01) (46 1.59125661849975585938e+00) (47 5.46846508979797363281e-01) (48 5.10759532451629638672e-01) (49 5.53377196192741394043e-02) (50 4.91796940565109252930e-01) (51 5.32072961330413818359e-01) (52 4.51543658971786499023e-01) (53 4.66669648885726928711e-01) (54 3.85492354631423950195e-01) (55 3.85522931814193725586e-01) (56 7.39441037178039550781e-01) (57 6.39152944087982177734e-01) (58 6.39997899532318115234e-01) (59 5.02766788005828857422e-01) (60 4.07822430133819580078e-01) (61 4.51402753591537475586e-01) (62 4.58652585744857788086e-01) (63 6.89832985401153564453e-01) (64 5.36955714225769042969e-01) (65 9.10147547721862792969e-01) (66 9.67970192432403564453e-01) (67 8.90017032623291015625e-01) (68 4.07570183277130126953e-01) (69 4.09451454877853393555e-01) (70 5.88328301906585693359e-01) (71 6.05259537696838378906e-01) (72 5.06219506263732910156e-01) (73 5.40684521198272705078e-01) (74 3.98749649524688720703e-01) (75 4.69660669565200805664e-01) (76 9.67329084873199462891e-01) (77 4.11839842796325683594e-01) (78 8.11295449733734130859e-01) (79 2.81425982713699340820e-01) (80 1.07613873481750488281e+00) (81 9.02430832386016845703e-01) (82 1.06167757511138916016e+00) (83 5.08090555667877197266e-01) (84 5.90992927551269531250e-01) (85 4.92570132017135620117e-01) (86 6.38132989406585693359e-01) (87 6.02695524692535400391e-01) (88 5.15258133411407470703e-01) (89 4.65087890625000000000e-01) (90 5.40835440158843994141e-01) (91 8.60983729362487792969e-01) (92 5.77963292598724365234e-01) (93 9.06756043434143066406e-01) (94 6.00767850875854492188e-01) (95 1.10492599010467529297e+00) (96 1.09326505661010742188e+00) (97 1.12512898445129394531e+00) (98 4.12873685359954833984e-01) (99 8.34169447422027587891e-01) (100 4.43805217742919921875e-01) (101 9.94333624839782714844e-01) (102 5.78860163688659667969e-01) (103 4.22187626361846923828e-01) (104 4.52565342187881469727e-01) (105 4.60933178663253784180e-01) (106 6.47809684276580810547e-01) (107 4.80971783399581909180e-01) (108 4.46095138788223266602e-01) (109 5.69169819355010986328e-01) (110 9.29486930370330810547e-01) (111 9.42088782787322998047e-01) (112 1.03214550018310546875e+00) (113 3.15035939216613769531e-01) (114 8.25699806213378906250e-01) (115 4.14411395788192749023e-01) (116 9.05378878116607666016e-01) (117 5.83147108554840087891e-01) (118 5.45185744762420654297e-01) (119 5.03384172916412353516e-01) (120 5.56189000606536865234e-01) (121 5.51602721214294433594e-01) (122 5.11730015277862548828e-01) (123 4.18725878000259399414e-01) (124 3.69714707136154174805e-01) (125 9.33398067951202392578e-01) (126 8.26887309551239013672e-01) (127 9.97971177101135253906e-01) (128 9.84661728143692016602e-02) (0 8.68608728051185607910e-02) (1 1.39231458306312561035e-01) (2 4.71561104059219360352e-02) (3 1.45404040813446044922e-02) (4 1.51761397719383239746e-01) (5 2.29251496493816375732e-02) (6 1.50662571191787719727e-01) (7 2.17001393437385559082e-01) (8 1.89230695366859436035e-01) (9 1.49982720613479614258e-01) (10 7.89541006088256835938e-03) (11 9.75243747234344482422e-02) (12 -3.90528910793364048004e-03) (13 7.31434598565101623535e-02) (14 1.55210345983505249023e-01) (15 3.04348058998584747314e-02) (16 1.66431605815887451172e-01) (17 1.70635908842086791992e-01) (18 1.76760345697402954102e-01) (19 1.44038051366806030273e-01) (20 1.75944790244102478027e-01) (21 -4.84549347311258316040e-03) (22 3.11899241060018539429e-02) (23 6.96263164281845092773e-02) (24 9.75928083062171936035e-02) (25 9.08615961670875549316e-02) (26 4.65201027691364288330e-02) (27 1.10074002295732498169e-02) (28 1.13569490611553192139e-01) (29 7.22971335053443908691e-02) (30 8.32772776484489440918e-02) (31 1.98040261864662170410e-01) (32 8.41891616582870483398e-02) (33 3.41883897781372070312e-02) (34 -1.14551158621907234192e-02) (35 2.88028120994567871094e-02) (36 -1.11579708755016326904e-02) (37 1.06610618531703948975e-01) (38 -4.21378910541534423828e-02) (39 1.51422917842864990234e-01) (40 6.69723227620124816895e-02) (41 -6.97858678176999092102e-03) (42 1.02164760231971740723e-01) (43 9.58269983530044555664e-02) (44 1.46268621087074279785e-01) (45 1.03901743888854980469e-01) (46 1.85365989804267883301e-01) (47 6.75283968448638916016e-02) (48 9.54097285866737365723e-02) (49 1.01128421723842620850e-01) (50 -1.06373464222997426987e-03) (51 -2.74159130640327930450e-03) (52 1.18020057678222656250e-01) (53 2.75612920522689819336e-02) (54 1.39336451888084411621e-01) (55 4.86605167388916015625e-02) (56 2.07142129540443420410e-01) (57 6.76691308617591857910e-02) (58 1.27707883715629577637e-01) (59 1.40975117683410644531e-01) (60 7.80044868588447570801e-02) (61 1.80967479944229125977e-01) (62 4.02035489678382873535e-02) (63 1.01172044873237609863e-01) (64 -3.94355989992618560791e-02) (65 1.33815947920083999634e-02) (66 -9.90446098148822784424e-03) (67 -9.46856066584587097168e-02) (68 -4.23796884715557098389e-02) (69 1.20875522494316101074e-01) (70 -2.92566213756799697876e-02) (71 8.70894491672515869141e-02) (72 1.42263516783714294434e-01) (73 5.97256608307361602783e-02) (74 -3.27730536460876464844e-01) (75 3.09921782463788986206e-02) (76 -5.31182847917079925537e-02) (77 -8.90357270836830139160e-02) (78 -6.75466358661651611328e-02) (79 -4.17764596641063690186e-02) (80 1.00207492709159851074e-01) (81 -3.71312275528907775879e-02) (82 1.06382429599761962891e-01) (83 6.25898502767086029053e-03) (84 3.21889780461788177490e-02) (85 4.78616356849670410156e-02) (86 1.04160122573375701904e-01) (87 1.41790099442005157471e-02) (88 3.76532487571239471436e-02) (89 -5.25695271790027618408e-02) (90 1.30776271224021911621e-01) (91 -3.03789116442203521729e-02) (92 -1.92158222198486328125e-02) (93 4.68101203441619873047e-02) (94 9.39822569489479064941e-02) (95 1.92127767950296401978e-02) (96 -4.23123314976692199707e-02) (97 9.98743176460266113281e-02) (98 1.60498023033142089844e-02) (99 -8.38523614220321178436e-04) (100 4.73188236355781555176e-02) (101 5.34711480140686035156e-02) (102 1.15323051810264587402e-01) (103 -2.80697853304445743561e-03) (104 -5.81617802381515502930e-02) (105 -3.77524495124816894531e-02) (106 -2.90625486522912979126e-02) (107 -6.53270492330193519592e-03) (108 -3.01218740642070770264e-02) (109 -4.85192984342575073242e-02) (110 8.53957757353782653809e-02) (111 1.01669430732727050781e-01) (112 2.25968454033136367798e-02) (113 -6.49174228310585021973e-02) (114 -2.63648144900798797607e-02) (115 6.11933544278144836426e-02) (116 9.26291719079017639160e-02) (117 -9.02840942144393920898e-02) (118 -3.31853300333023071289e-01) (119 8.96484032273292541504e-03) (120 -1.73344358336180448532e-03) (121 -8.98307189345359802246e-03) (122 4.36879917979240417480e-02) (123 2.55681555718183517456e-02) (124 5.25780282914638519287e-02) (125 -7.90868848562240600586e-02) (126 -5.17443530261516571045e-02) (127 4.86384741961956024170e-02) (128 1.02904543280601501465e-01) (0 8.65122526884078979492e-02) (1 -4.61131371557712554932e-02) (2 2.43444405496120452881e-02) (3 1.45752787590026855469e-01) (4 2.29174897074699401855e-01) (5 2.15129733085632324219e-01) (6 2.18431189656257629395e-01) (7 1.35919889435172080994e-02) (8 1.52255833148956298828e-01) (9 1.57140523195266723633e-01) (10 3.17481011152267456055e-02) (11 -1.70752778649330139160e-02) (12 8.17416906356811523438e-02) (13 -4.07757610082626342773e-02) (14 5.84080889821052551270e-02) (15 7.86891132593154907227e-02) (16 5.98801262676715850830e-02) (17 -7.14550027623772621155e-03) (18 1.09024628996849060059e-01) (19 3.02858427166938781738e-02) (20 7.35838562250137329102e-02) (21 1.28922596573829650879e-01) (22 -2.30919942259788513184e-02) (23 -4.81345206499099731445e-02) (24 1.13765150308609008789e-02) (25 7.24781528115272521973e-02) (26 -4.25927117466926574707e-02) (27 -2.09766104817390441895e-02) (28 3.45844402909278869629e-02) (29 9.12875309586524963379e-02) (30 -1.52236316353082656860e-02) (31 -7.59098352864384651184e-03) (32 8.75729694962501525879e-02) (33 4.44524846971035003662e-02) (34 -7.36890584230422973633e-02) (35 7.48832598328590393066e-02) (36 7.00958371162414550781e-02) (37 3.15145179629325866699e-02) (38 9.55803468823432922363e-02) (39 1.82127244770526885986e-02) (40 7.45449662208557128906e-02) (41 -1.34068652987480163574e-01) (42 9.32850409299135208130e-03) (43 -3.45235355198383331299e-02) (44 3.91070134937763214111e-02) (45 -2.36203987151384353638e-02) (46 1.75209507346153259277e-01) (47 6.88657611608505249023e-02) (48 4.23381030559539794922e-02) (49 1.31555814296007156372e-02) (50 1.71275794506072998047e-01) (51 7.01071321964263916016e-02) (52 7.16585591435432434082e-02) (53 7.61769041419029235840e-02) (54 2.37124860286712646484e-02) (55 1.43697246909141540527e-01) (56 6.59342706203460693359e-02) (57 7.96988308429718017578e-02) (58 1.56968191266059875488e-01) (59 6.04152008891105651855e-02) (60 1.06698259711265563965e-01) (61 2.06384420394897460938e-01) (62 8.99828076362609863281e-02) (63 2.83459271304309368134e-03) (64 2.01449573040008544922e-01) (65 9.08309817314147949219e-02) (66 -4.68688756227493286133e-02) (67 4.44353707134723663330e-02) (68 1.71789526939392089844e-01) (69 2.32844606041908264160e-01) (70 3.47977727651596069336e-02) (71 1.39550328254699707031e-01) (72 -3.48561853170394897461e-02) (73 1.78211197257041931152e-01) (74 7.56254270672798156738e-02) (75 -5.80723979510366916656e-04) (76 5.19539415836334228516e-03) (77 1.50727331638336181641e-02) (78 1.40658512711524963379e-01) (79 -2.26640589535236358643e-02) (80 1.50888428092002868652e-01) (81 3.75807248055934906006e-02) (82 -1.40738561749458312988e-02) (83 3.14462482929229736328e-02) (84 7.09610804915428161621e-02) (85 6.84659741818904876709e-03) (86 4.55043278634548187256e-02) (87 1.64484232664108276367e-01) (88 1.40441924333572387695e-01) (89 1.26551792025566101074e-01) (90 2.01766014099121093750e-01) (91 2.29683578014373779297e-01) (92 4.93038408458232879639e-02) (93 1.39891549944877624512e-01) (94 1.94399719475768506527e-04) (95 1.79455485194921493530e-02) (96 -9.96561646461486816406e-02) (97 4.80182394385337829590e-02) (98 1.02074749767780303955e-01) (99 9.70862954854965209961e-02) (100 3.34033854305744171143e-02) (101 2.30769976973533630371e-01) (102 2.09121257066726684570e-01) (103 9.92019847035408020020e-02) (104 2.01209560036659240723e-01) (105 1.11146770417690277100e-01) (106 1.41905188560485839844e-01) (107 1.61897003650665283203e-01) (108 2.14651286602020263672e-01) (109 4.15080897510051727295e-02) (110 5.19030988216400146484e-02) (111 7.64886364340782165527e-02) (112 -1.05639081448316574097e-02) (113 -2.36013215035200119019e-02) (114 3.53871583938598632812e-02) (115 -3.69367073290050029755e-04) (116 9.96840968728065490723e-02) (117 2.22869068384170532227e-02) (118 -1.03737330064177513123e-02) (119 6.77033513784408569336e-03) (120 1.10935151576995849609e-01) (121 4.31732796132564544678e-02) (122 1.84417456388473510742e-01) (123 5.50926886498928070068e-02) (124 1.28070324659347534180e-01) (125 -4.55624014139175415039e-02) (126 -3.40088866651058197021e-02) (127 -7.03518986701965332031e-02) (128 -5.66785383224487304688e+00) (0 5.79451546072959899902e-02) (1 7.32576102018356323242e-02) (2 1.17949351668357849121e-01) (3 3.66876423358917236328e-02) (4 3.37670519948005676270e-02) (5 1.32295578718185424805e-01) (6 -3.12989540398120880127e-02) (7 7.06337094306945800781e-02) (8 -4.32219682261347770691e-03) (9 1.18275489658117294312e-02) (10 1.16600416600704193115e-01) (11 1.44465655088424682617e-01) (12 5.45954518020153045654e-02) (13 9.14706513285636901855e-02) (14 1.07521750032901763916e-01) (15 5.83891086280345916748e-02) (16 -8.97210910916328430176e-02) (17 -1.70773229910992085934e-04) (18 5.73532506823539733887e-02) (19 5.53518831729888916016e-02) (20 3.19575518369674682617e-02) (21 1.20777465403079986572e-01) (22 -1.41282826662063598633e-02) (23 4.58028689026832580566e-02) (24 1.33015438914299011230e-01) (25 4.63278852403163909912e-02) (26 -4.29793857038021087646e-02) (27 -8.32168683409690856934e-02) (28 6.62741512060165405273e-02) (29 -1.40982978045940399170e-02) (30 4.25291843712329864502e-02) (31 -4.29821647703647613525e-02) (32 1.05733908712863922119e-01) (33 5.48193156719207763672e-02) (34 -1.98935512453317642212e-02) (35 -2.82414611428976058960e-02) (36 8.53163525462150573730e-02) (37 2.09179110825061798096e-02) (38 -4.84174750745296478271e-02) (39 -2.29224320501089096069e-02) (40 -4.49686609208583831787e-02) (41 -6.18283748626708984375e-02) (42 9.52115505933761596680e-02) (43 1.10607817769050598145e-01) (44 9.55515801906585693359e-02) (45 1.17040678858757019043e-01) (46 -8.04551765322685241699e-02) (47 -7.33327418565750122070e-02) (48 -7.69752189517021179199e-02) (49 1.96955040097236633301e-01) (50 2.41187047213315963745e-02) (51 7.40869492292404174805e-02) (52 5.83094768226146697998e-02) (53 1.60212755203247070312e-01) (54 4.26977081224322319031e-03) (55 7.49039202928543090820e-02) (56 -2.00262293219566345215e-02) (57 -7.48538784682750701904e-03) (58 3.44816334545612335205e-02) (59 1.53537034988403320312e-01) (60 1.19618237018585205078e-01) (61 -5.23304529488086700439e-02) (62 7.86085873842239379883e-02) (63 1.06094278395175933838e-01) (64 -5.25663644075393676758e-02) (65 -1.51409357786178588867e-01) (66 -7.09801688790321350098e-02) (67 -6.86343908309936523438e-02) (68 7.98709914088249206543e-02) (69 -3.78365218639373779297e-02) (70 1.38812229037284851074e-01) (71 8.11766386032104492188e-02) (72 -4.75798137485980987549e-02) (73 8.29377770423889160156e-02) (74 1.55765116214752197266e-01) (75 -5.49224987626075744629e-02) (76 3.58453020453453063965e-02) (77 1.37889146804809570312e-01) (78 -8.11439827084541320801e-02) (79 1.55369073152542114258e-01) (80 6.04922845959663391113e-02) (81 7.62101309373974800110e-03) (82 -3.51971685886383056641e-02) (83 8.37644487619400024414e-02) (84 -3.55598377063870429993e-03) (85 6.88696280121803283691e-02) (86 -2.58512329310178756714e-02) (87 9.02472157031297683716e-03) (88 -1.67526490986347198486e-02) (89 -5.92108676210045814514e-03) (90 -1.36052845045924186707e-02) (91 -1.16216383874416351318e-01) (92 -6.94995559751987457275e-03) (93 5.84495924413204193115e-02) (94 5.09288944303989410400e-02) (95 -7.40902125835418701172e-02) (96 -1.59386202692985534668e-01) (97 -4.50098626315593719482e-02) (98 -2.62798555195331573486e-02) (99 -7.64412879943847656250e-02) (100 6.22710250318050384521e-02) (101 -7.36065953969955444336e-02) (102 -8.40231105685234069824e-02) (103 -6.75583332777023315430e-02) (104 -4.86366786062717437744e-02) (105 -9.89573225378990173340e-02) (106 -1.17410853505134582520e-01) (107 6.17368109524250030518e-02) (108 -4.90819290280342102051e-02) (109 -4.63418588042259216309e-02) (110 -1.36955594643950462341e-02) (111 -8.13027024269104003906e-02) (112 8.79323855042457580566e-03) (113 4.10232953727245330811e-02) (114 8.99208262562751770020e-02) (115 -5.03058880567550659180e-02) (116 -6.05067051947116851807e-02) (117 3.15095782279968261719e-02) (118 1.32952138781547546387e-01) (119 3.05275321006774902344e-02) (120 9.61178615689277648926e-02) (121 -3.58306728303432464600e-02) (122 1.08494579792022705078e-01) (123 3.75522412359714508057e-02) (124 -3.38900312781333923340e-02) (125 -9.59071293473243713379e-02) (126 -2.21054181456565856934e-01) (127 -8.24708715081214904785e-02) (128 1.12328636646270751953e+00) (0 2.08492591977119445801e-01) (1 9.51671153306961059570e-02) (2 1.66196331381797790527e-01) (3 9.39124971628189086914e-02) (4 1.11663080751895904541e-01) (5 1.82364255189895629883e-01) (6 1.58317387104034423828e-01) (7 2.15023860335350036621e-01) (8 2.76737183332443237305e-01) (9 1.42488032579421997070e-01) (10 1.97645515203475952148e-01) (11 2.39416062831878662109e-01) (12 2.60084092617034912109e-01) (13 2.03452885150909423828e-01) (14 1.58709779381752014160e-01) (15 8.61395224928855895996e-02) (16 1.95818275213241577148e-01) (17 2.03461736440658569336e-01) (18 1.61928415298461914062e-01) (19 6.60742968320846557617e-02) (20 1.25029698014259338379e-01) (21 2.44868829846382141113e-01) (22 2.69154012203216552734e-01) (23 2.18007966876029968262e-01) (24 1.70715838670730590820e-01) (25 1.28563851118087768555e-01) (26 9.10939872264862060547e-02) (27 1.36421412229537963867e-01) (28 1.80414944887161254883e-01) (29 2.27008014917373657227e-01) (30 2.15475618839263916016e-01) (31 1.41116663813591003418e-01) (32 2.41010352969169616699e-01) (33 1.44976735115051269531e-01) (34 1.46306753158569335938e-01) (35 9.13364142179489135742e-02) (36 2.53764182329177856445e-01) (37 2.53919124603271484375e-01) (38 1.95615425705909729004e-01) (39 1.89103469252586364746e-01) (40 7.28037059307098388672e-02) (41 1.27635553479194641113e-01) (42 1.97758853435516357422e-01) (43 8.47334191203117370605e-02) (44 6.40840306878089904785e-02) (45 6.95298910140991210938e-02) (46 1.45390376448631286621e-01) (47 2.16956704854965209961e-01) (48 2.02249452471733093262e-01) (49 1.63717463612556457520e-01) (50 1.92009463906288146973e-01) (51 2.52129763364791870117e-01) (52 1.60178035497665405273e-01) (53 1.84021428227424621582e-01) (54 2.15344145894050598145e-01) (55 1.01963639259338378906e-01) (56 3.22264939546585083008e-01) (57 2.93681561946868896484e-01) (58 1.46507918834686279297e-01) (59 1.67439937591552734375e-01) (60 1.96280509233474731445e-01) (61 9.30908471345901489258e-02) (62 2.35551565885543823242e-01) (63 2.12282329797744750977e-01) (64 7.86512732505798339844e-01) (65 1.73623457551002502441e-01) (66 9.04430389404296875000e-01) (67 1.68533816933631896973e-01) (68 7.28757321834564208984e-01) (69 2.34428331255912780762e-01) (70 7.39531219005584716797e-01) (71 3.04916799068450927734e-01) (72 3.03016960620880126953e-01) (73 2.36271351575851440430e-01) (74 1.31500422954559326172e-01) (75 2.44180783629417419434e-01) (76 2.74074703454971313477e-01) (77 3.01890730857849121094e-01) (78 1.92633166909217834473e-01) (79 1.64756387472152709961e-01) (80 1.47569626569747924805e-01) (81 2.08431288599967956543e-01) (82 1.85781419277191162109e-01) (83 3.34018617868423461914e-01) (84 2.74970561265945434570e-01) (85 7.11563527584075927734e-01) (86 3.13368290662765502930e-01) (87 3.22356343269348144531e-01) (88 3.84087830781936645508e-01) (89 1.66661247611045837402e-01) (90 7.64982998371124267578e-01) (91 3.07786524295806884766e-01) (92 3.11143934726715087891e-01) (93 1.42228990793228149414e-01) (94 2.48916476964950561523e-01) (95 2.70087718963623046875e-01) (96 2.34041482210159301758e-01) (97 1.43488645553588867188e-01) (98 2.20164015889167785645e-01) (99 2.50136643648147583008e-01) (100 3.70732724666595458984e-01) (101 2.24134176969528198242e-01) (102 9.10834133625030517578e-01) (103 2.07010880112648010254e-01) (104 3.78700137138366699219e-01) (105 2.55837053060531616211e-01) (106 1.78020566701889038086e-01) (107 8.24565410614013671875e-01) (108 3.28629076480865478516e-01) (109 2.94233202934265136719e-01) (110 3.17300140857696533203e-01) (111 2.20862075686454772949e-01) (112 2.16739490628242492676e-01) (113 1.59617632627487182617e-01) (114 2.71008938550949096680e-01) (115 2.24106535315513610840e-01) (116 2.10382893681526184082e-01) (117 1.90431565046310424805e-01) (118 2.33435466885566711426e-01) (119 1.72877028584480285645e-01) (120 2.64284223318099975586e-01) (121 2.58273363113403320312e-01) (122 7.18418300151824951172e-01) (123 2.95612335205078125000e-01) (124 7.17931807041168212891e-01) (125 1.38433262705802917480e-01) (126 8.34505438804626464844e-01) (127 2.14444711804389953613e-01) (128 7.09325224161148071289e-02) (0 -2.03977033495903015137e-01) (1 -9.60645377635955810547e-02) (2 3.97653020918369293213e-02) (3 8.30600112676620483398e-02) (4 -5.23872300982475280762e-02) (5 -9.33499038219451904297e-02) (6 -2.35807988792657852173e-02) (7 -6.32816627621650695801e-02) (8 -1.97212383151054382324e-01) (9 -1.19354072958230972290e-02) (10 -7.93990772217512130737e-03) (11 -7.45005831122398376465e-02) (12 -1.49789333343505859375e-01) (13 6.84851128607988357544e-03) (14 -1.73013672232627868652e-01) (15 5.56262508034706115723e-02) (16 -1.81628838181495666504e-01) (17 -1.28921940922737121582e-01) (18 -2.19642817974090576172e-01) (19 5.21750673651695251465e-02) (20 -4.75561842322349548340e-02) (21 -9.58308205008506774902e-02) (22 -1.55928492546081542969e-01) (23 -1.22507266700267791748e-01) (24 -8.40106606483459472656e-03) (25 -4.33878935873508453369e-02) (26 8.58824793249368667603e-03) (27 -8.20871740579605102539e-02) (28 -6.70475661754608154297e-02) (29 -1.72164946794509887695e-01) (30 -1.08728453516960144043e-01) (31 -2.32262566685676574707e-01) (32 -1.77246719598770141602e-01) (33 -7.09046050906181335449e-02) (34 6.07263445854187011719e-02) (35 -1.36136248707771301270e-01) (36 -1.78350508213043212891e-01) (37 -9.72013249993324279785e-02) (38 2.67983097583055496216e-02) (39 -4.94654513895511627197e-02) (40 -9.15326848626136779785e-02) (41 -6.48815790191292762756e-03) (42 -1.05157390236854553223e-01) (43 -1.02891564369201660156e-01) (44 -9.19512473046779632568e-03) (45 3.23388464748859405518e-02) (46 -2.18794882297515869141e-01) (47 -4.37090285122394561768e-02) (48 -2.28549912571907043457e-01) (49 -4.36076596379280090332e-02) (50 -6.87686279416084289551e-02) (51 -2.52616964280605316162e-02) (52 -9.44061800837516784668e-02) (53 -1.80174067616462707520e-01) (54 6.60843849182128906250e-02) (55 -6.56981691718101501465e-02) (56 -1.86353102326393127441e-01) (57 -9.49463099241256713867e-02) (58 5.21584122907370328903e-04) (59 3.50255854427814483643e-02) (60 -1.04858465492725372314e-02) (61 1.09936662018299102783e-01) (62 4.12855073809623718262e-02) (63 -3.42958793044090270996e-02) (64 1.34261846542358398438e-01) (65 -1.17825783789157867432e-01) (66 3.43609414994716644287e-02) (67 1.17010265588760375977e-01) (68 4.16103117167949676514e-02) (69 2.83266268670558929443e-02) (70 -5.35385496914386749268e-02) (71 6.18990249931812286377e-02) (72 -2.92577948421239852905e-02) (73 1.03319801390171051025e-01) (74 1.07032723724842071533e-01) (75 5.40975444018840789795e-02) (76 1.94066879339516162872e-03) (77 -7.50126093626022338867e-02) (78 -5.99214760586619377136e-03) (79 3.08384820818901062012e-02) (80 -1.05736657977104187012e-01) (81 -1.45253196358680725098e-01) (82 3.74210886657238006592e-02) (83 1.19330257177352905273e-01) (84 -3.03171332925558090210e-02) (85 5.44277988374233245850e-02) (86 1.21475338935852050781e-01) (87 -1.31604187190532684326e-02) (88 1.33018627762794494629e-01) (89 1.55970051884651184082e-01) (90 1.67496576905250549316e-01) (91 -4.55287583172321319580e-02) (92 9.91647616028785705566e-02) (93 9.04777720570564270020e-02) (94 4.76962663233280181885e-02) (95 -2.15367283672094345093e-02) (96 -2.32871491461992263794e-02) (97 -1.25913754105567932129e-01) (98 6.41856119036674499512e-02) (99 -5.76039627194404602051e-02) (100 2.47000809758901596069e-02) (101 5.89575506746768951416e-02) (102 9.12897810339927673340e-02) (103 1.11409761011600494385e-01) (104 2.00458299368619918823e-02) (105 3.79557274281978607178e-02) (106 -2.33380440622568130493e-02) (107 6.36416375637054443359e-02) (108 5.45560829341411590576e-02) (109 7.91325867176055908203e-02) (110 -1.14294819533824920654e-01) (111 -1.45054701715707778931e-02) (112 -9.47937835007905960083e-03) (113 1.16677932441234588623e-01) (114 2.00798418372869491577e-02) (115 7.15424641966819763184e-02) (116 1.55670633539557456970e-02) (117 2.67429370433092117310e-02) (118 1.14284709095954895020e-01) (119 1.80121026933193206787e-02) (120 -5.53110148757696151733e-03) (121 1.34581282734870910645e-01) (122 -4.95155341923236846924e-03) (123 -9.02858003973960876465e-03) (124 7.65615180134773254395e-02) (125 7.86303058266639709473e-02) (126 4.59229163825511932373e-02) (127 -2.36001476645469665527e-01) (128 -2.59945511817932128906e+00) (0 -4.05623167753219604492e-02) (1 -7.66220092773437500000e-02) (2 1.58866364508867263794e-02) (3 7.23048076033592224121e-02) (4 9.15673896670341491699e-02) (5 4.28184568881988525391e-02) (6 -1.42193362116813659668e-01) (7 -1.18174269795417785645e-01) (8 -1.66156187653541564941e-01) (9 -3.57905887067317962646e-02) (10 7.85367190837860107422e-03) (11 5.10078817605972290039e-02) (12 3.48559394478797912598e-02) (13 4.46848645806312561035e-02) (14 -2.29496452957391738892e-02) (15 5.83359673619270324707e-02) (16 6.00954815745353698730e-02) (17 -6.67675137519836425781e-02) (18 -1.22029960155487060547e-01) (19 -1.83089207857847213745e-02) (20 -1.27516642212867736816e-01) (21 -7.50023126602172851562e-02) (22 3.34137082099914550781e-02) (23 7.93859362602233886719e-02) (24 -4.53898916020989418030e-03) (25 6.61805048584938049316e-02) (26 5.18002957105636596680e-02) (27 -7.14486688375473022461e-02) (28 2.16316897422075271606e-02) (29 2.96973530203104019165e-02) (30 -1.05792619287967681885e-01) (31 3.78596559166908264160e-02) (32 -1.01572729647159576416e-01) (33 -7.58744627237319946289e-02) (34 1.20980544015765190125e-02) (35 2.83378977328538894653e-02) (36 -7.99081921577453613281e-02) (37 1.27083687111735343933e-02) (38 -6.44755288958549499512e-02) (39 -8.48781764507293701172e-02) (40 -6.03285506367683410645e-02) (41 3.22622582316398620605e-02) (42 3.53230200707912445068e-02) (43 5.33993095159530639648e-02) (44 -1.19563832879066467285e-01) (45 -7.52216726541519165039e-02) (46 -3.03951930254697799683e-02) (47 -7.69947022199630737305e-02) (48 -6.67124688625335693359e-02) (49 5.36668598651885986328e-02) (50 1.01708881556987762451e-02) (51 4.77745682001113891602e-02) (52 6.96957185864448547363e-02) (53 -1.96112859994173049927e-02) (54 -5.54231405258178710938e-02) (55 -7.97619596123695373535e-02) (56 -1.33679986000061035156e-01) (57 -1.62802606821060180664e-01) (58 -2.15944778174161911011e-02) (59 3.78632768988609313965e-02) (60 1.01705871522426605225e-01) (61 4.40688133239746093750e-02) (62 9.64482575654983520508e-02) (63 4.97699156403541564941e-02) (64 1.43187612295150756836e-01) (65 -4.16260585188865661621e-03) (66 2.15249508619308471680e-01) (67 -1.37061700224876403809e-01) (68 1.23803913593292236328e-01) (69 2.54154931753873825073e-02) (70 -9.21917110681533813477e-02) (71 -8.70672389864921569824e-02) (72 -6.28291741013526916504e-02) (73 -2.91339177638292312622e-02) (74 -2.21716135740280151367e-01) (75 -1.80904660373926162720e-02) (76 -7.58165419101715087891e-02) (77 1.43907040357589721680e-01) (78 4.67555560171604156494e-02) (79 9.43220183253288269043e-02) (80 -6.60041719675064086914e-02) (81 7.70097551867365837097e-03) (82 5.24557754397392272949e-02) (83 -2.37691979855298995972e-02) (84 -3.39002050459384918213e-02) (85 -8.99107605218887329102e-02) (86 -5.97162023186683654785e-02) (87 3.16604897379875183105e-02) (88 -7.56029635667800903320e-02) (89 8.20918902754783630371e-02) (90 -1.22908018529415130615e-02) (91 -1.24037913978099822998e-01) (92 1.94710250943899154663e-02) (93 -9.92023125290870666504e-02) (94 1.44519105553627014160e-01) (95 -4.29368345066905021667e-03) (96 9.61560755968093872070e-03) (97 -1.46457720547914505005e-02) (98 9.07628759741783142090e-02) (99 -6.24593868851661682129e-02) (100 -6.28133490681648254395e-02) (101 1.71988923102617263794e-02) (102 -1.92713793367147445679e-02) (103 2.04992052167654037476e-02) (104 1.05375899001955986023e-02) (105 -3.16796591505408287048e-03) (106 -8.54412317276000976562e-02) (107 1.38560403138399124146e-02) (108 -1.09801881015300750732e-01) (109 1.57717272639274597168e-01) (110 -8.52266475558280944824e-02) (111 3.26728075742721557617e-02) (112 -7.20389261841773986816e-02) (113 2.03823134303092956543e-01) (114 -1.42699591815471649170e-02) (115 1.61516457796096801758e-01) (116 -6.09635598957538604736e-02) (117 1.70489344745874404907e-02) (118 -1.52676671743392944336e-01) (119 -1.36676013469696044922e-01) (120 -8.30185192171484231949e-04) (121 6.97409287095069885254e-02) (122 -3.61631475389003753662e-02) (123 -3.23563963174819946289e-02) (124 -4.32437546551227569580e-02) (125 -8.32357928156852722168e-02) (126 8.49634483456611633301e-02) (127 3.91759425401687622070e-02) (128 1.28089442849159240723e-01) (0 1.78314208984375000000e-01) (1 2.21885189414024353027e-01) (2 2.70421840250492095947e-02) (3 1.35194271802902221680e-01) (4 6.73924922943115234375e-01) (5 5.29253423213958740234e-01) (6 6.46688461303710937500e-01) (7 8.41901719570159912109e-01) (8 6.79789364337921142578e-01) (9 8.03212463855743408203e-01) (10 6.43013596534729003906e-01) (11 4.07821148633956909180e-01) (12 2.38367721438407897949e-01) (13 9.68242511153221130371e-02) (14 2.38180488348007202148e-01) (15 7.78138518333435058594e-01) (16 2.81247556209564208984e-01) (17 2.93669134378433227539e-01) (18 4.56489652395248413086e-01) (19 7.29441165924072265625e-01) (20 6.96780562400817871094e-01) (21 7.10138738155364990234e-01) (22 2.92498886585235595703e-01) (23 2.61386573314666748047e-01) (24 3.58907461166381835938e-01) (25 3.32113176584243774414e-01) (26 8.40779170393943786621e-02) (27 7.69520998001098632812e-02) (28 3.48300129175186157227e-01) (29 7.82524824142456054688e-01) (30 7.97488868236541748047e-01) (31 3.10240805149078369141e-01) (32 2.42841705679893493652e-01) (33 4.44632798433303833008e-01) (34 7.53359198570251464844e-01) (35 7.98846006393432617188e-01) (36 3.64678025245666503906e-01) (37 2.00344562530517578125e-01) (38 1.67126655578613281250e-01) (39 3.59920203685760498047e-01) (40 2.84606456756591796875e-01) (41 3.65283817052841186523e-01) (42 3.95854473114013671875e-01) (43 6.87654972076416015625e-01) (44 6.62593185901641845703e-01) (45 8.03202509880065917969e-01) (46 2.71354526281356811523e-01) (47 2.89186805486679077148e-01) (48 2.63387799263000488281e-01) (49 6.20768725872039794922e-01) (50 2.64416277408599853516e-01) (51 1.95310309529304504395e-01) (52 1.41242638230323791504e-01) (53 3.04349958896636962891e-01) (54 6.44211769104003906250e-01) (55 6.81329607963562011719e-01) (56 6.86169385910034179688e-01) (57 7.28556990623474121094e-01) (58 6.75040662288665771484e-01) (59 5.16411900520324707031e-01) (60 6.22406303882598876953e-01) (61 6.31069019436836242676e-02) (62 2.06902757287025451660e-01) (63 1.74755617976188659668e-01) (64 1.62982374429702758789e-01) (65 1.12384401261806488037e-01) (66 7.28128254413604736328e-02) (67 2.07252159714698791504e-01) (68 9.52414721250534057617e-02) (69 7.85785987973213195801e-02) (70 1.49052903056144714355e-01) (71 2.01113656163215637207e-01) (72 3.15575540065765380859e-01) (73 2.80833244323730468750e-01) (74 4.35892611742019653320e-01) (75 2.49146819114685058594e-01) (76 2.17360898852348327637e-01) (77 1.83776929974555969238e-01) (78 1.19690097868442535400e-01) (79 2.44337484240531921387e-01) (80 1.15900211036205291748e-01) (81 1.93913564085960388184e-01) (82 1.34845793247222900391e-01) (83 1.74215838313102722168e-01) (84 1.72185495495796203613e-01) (85 2.26640552282333374023e-01) (86 1.95085138082504272461e-01) (87 1.44320741295814514160e-01) (88 2.41926640272140502930e-01) (89 2.06906661391258239746e-01) (90 9.06127765774726867676e-02) (91 2.41382241249084472656e-01) (92 2.00713038444519042969e-01) (93 5.85801415145397186279e-02) (94 1.95427209138870239258e-01) (95 1.31514146924018859863e-01) (96 7.02825114130973815918e-02) (97 1.73710003495216369629e-01) (98 1.64530977606773376465e-01) (99 2.36343368887901306152e-01) (100 2.44305059313774108887e-01) (101 2.10154920816421508789e-01) (102 1.93112626671791076660e-01) (103 2.01709076762199401855e-01) (104 2.48343378305435180664e-01) (105 1.64042264223098754883e-01) (106 1.80329412221908569336e-01) (107 2.89568096399307250977e-01) (108 1.91421955823898315430e-01) (109 2.99178212881088256836e-01) (110 1.28233179450035095215e-01) (111 9.37685593962669372559e-02) (112 7.90691524744033813477e-02) (113 3.03778499364852905273e-01) (114 1.33220359683036804199e-01) (115 5.27689233422279357910e-03) (116 1.03257477283477783203e-01) (117 1.07562951743602752686e-01) (118 3.34721922874450683594e-01) (119 2.91484117507934570312e-01) (120 3.04707318544387817383e-01) (121 1.56608521938323974609e-01) (122 6.83698207139968872070e-02) (123 1.27184703946113586426e-01) (124 1.32012963294982910156e-01) (125 1.54821068048477172852e-01) (126 1.66443645954132080078e-01) (127 9.01397224515676498413e-03) (128 5.43982796370983123779e-02) (0 -4.67877149581909179688e-01) (1 -2.53117680549621582031e-01) (2 2.66887284815311431885e-02) (3 -1.35668829083442687988e-01) (4 -9.53769311308860778809e-02) (5 -1.19746968150138854980e-01) (6 -2.23508954048156738281e-01) (7 -3.80004703998565673828e-01) (8 -8.48413035273551940918e-02) (9 -1.31443381309509277344e-01) (10 -9.11815837025642395020e-02) (11 -2.87812389433383941650e-02) (12 -3.75282526016235351562e-01) (13 -9.41277444362640380859e-02) (14 -1.06035009026527404785e-01) (15 1.64153531193733215332e-01) (16 -2.22730427980422973633e-01) (17 -7.07364454865455627441e-02) (18 -2.50390291213989257812e-01) (19 -9.41847935318946838379e-02) (20 -2.44545087218284606934e-01) (21 -1.50876700878143310547e-01) (22 -2.81242132186889648438e-01) (23 -1.57522842288017272949e-01) (24 -1.23455047607421875000e-01) (25 -1.06617003679275512695e-01) (26 -6.74887076020240783691e-02) (27 -3.77766400575637817383e-01) (28 -1.70870289206504821777e-01) (29 -2.51916021108627319336e-01) (30 -1.30447432398796081543e-01) (31 -2.81922608613967895508e-01) (32 -1.86549603939056396484e-01) (33 -1.56501486897468566895e-01) (34 -1.10141225159168243408e-01) (35 -1.27941355109214782715e-01) (36 -1.16666994988918304443e-01) (37 -4.11633104085922241211e-01) (38 -1.17480248212814331055e-01) (39 -9.23986583948135375977e-02) (40 -2.00234934687614440918e-01) (41 -2.41411238908767700195e-01) (42 -2.26054817438125610352e-01) (43 -5.72473853826522827148e-02) (44 -1.06610618531703948975e-01) (45 -1.64599731564521789551e-01) (46 -1.64735391736030578613e-01) (47 -1.91572442650794982910e-01) (48 -1.32145315408706665039e-01) (49 1.69341295957565307617e-01) (50 -1.32884219288825988770e-01) (51 -5.98414763808250427246e-02) (52 -5.08156418800354003906e-01) (53 -7.44750201702117919922e-02) (54 -9.66507643461227416992e-02) (55 -9.16890278458595275879e-02) (56 -2.51852184534072875977e-01) (57 -3.26344847679138183594e-01) (58 -2.54319369792938232422e-01) (59 -1.52863577008247375488e-01) (60 -1.46204680204391479492e-01) (61 -2.02113837003707885742e-01) (62 -1.84272825717926025391e-02) (63 -1.77057996392250061035e-01) (64 -5.72800993919372558594e-01) (65 -2.87836164236068725586e-01) (66 -4.60070133209228515625e-01) (67 -2.55342870950698852539e-01) (68 -4.02607530355453491211e-01) (69 -3.25971990823745727539e-01) (70 -3.78795206546783447266e-01) (71 -3.87894332408905029297e-01) (72 -2.58048921823501586914e-01) (73 -2.40031316876411437988e-01) (74 -2.90541231632232666016e-01) (75 -2.88253247737884521484e-01) (76 -2.61840313673019409180e-01) (77 -4.16997402906417846680e-01) (78 -2.91221648454666137695e-01) (79 1.59198325127363204956e-02) (80 -3.11999022960662841797e-01) (81 -3.65904092788696289062e-01) (82 -3.47558736801147460938e-01) (83 -1.96023896336555480957e-01) (84 -2.22506269812583923340e-01) (85 -2.28253215551376342773e-01) (86 -3.58888685703277587891e-01) (87 -4.54132199287414550781e-01) (88 -3.75414520502090454102e-01) (89 -2.45957672595977783203e-01) (90 -3.67067873477935791016e-01) (91 -3.55382800102233886719e-01) (92 -3.73923569917678833008e-01) (93 -4.18850928544998168945e-01) (94 -3.99514526128768920898e-01) (95 -3.71220678091049194336e-01) (96 -4.31086987257003784180e-01) (97 -4.98055428266525268555e-01) (98 -2.66383737325668334961e-01) (99 -3.39316338300704956055e-01) (100 -2.69100934267044067383e-01) (101 -4.47289109230041503906e-01) (102 -4.21399056911468505859e-01) (103 -2.94409930706024169922e-01) (104 -4.24917072057723999023e-01) (105 -3.44553112983703613281e-01) (106 -4.07974362373352050781e-01) (107 -2.27121755480766296387e-01) (108 -2.87219166755676269531e-01) (109 -1.90798491239547729492e-01) (110 -3.24885308742523193359e-01) (111 -3.38359236717224121094e-01) (112 -4.28171515464782714844e-01) (113 -6.44325315952301025391e-02) (114 -3.67182046175003051758e-01) (115 -3.96979063749313354492e-01) (116 -3.89108330011367797852e-01) (117 -2.40224093198776245117e-01) (118 -3.46079111099243164062e-01) (119 -2.97199010848999023438e-01) (120 -2.73315757513046264648e-01) (121 -3.87345373630523681641e-01) (122 -4.33504283428192138672e-01) (123 -4.62826222181320190430e-01) (124 -3.56537193059921264648e-01) (125 -4.06332820653915405273e-01) (126 -3.15515160560607910156e-01) (127 -2.97561079263687133789e-01) (128 8.62340405583381652832e-02) (0 -1.50613263249397277832e-02) (1 1.31097380071878433228e-02) (2 2.28554066270589828491e-02) (3 4.79944609105587005615e-02) (4 4.99345473945140838623e-02) (5 9.34910923242568969727e-02) (6 1.69352777302265167236e-02) (7 -8.35581421852111816406e-02) (8 -7.02290832996368408203e-02) (9 6.49378970265388488770e-02) (10 9.46951061487197875977e-02) (11 -2.32755299657583236694e-02) (12 -2.63690366409718990326e-04) (13 -4.69477940350770950317e-03) (14 -6.57444726675748825073e-03) (15 2.51554101705551147461e-01) (16 -6.88110990449786186218e-03) (17 4.86025214195251464844e-02) (18 -9.87132266163825988770e-02) (19 1.25362146645784378052e-02) (20 2.98778750002384185791e-02) (21 6.38298839330673217773e-02) (22 -8.37708264589309692383e-02) (23 -4.52695153653621673584e-02) (24 1.10487014055252075195e-01) (25 -3.46945822238922119141e-02) (26 1.10636524856090545654e-01) (27 -8.00862610340118408203e-02) (28 1.34502321481704711914e-01) (29 4.76627685129642486572e-02) (30 3.76149639487266540527e-02) (31 -4.98428419232368469238e-02) (32 -2.82799173146486282349e-02) (33 -3.49058620631694793701e-02) (34 1.72669500112533569336e-01) (35 4.30094934999942779541e-02) (36 6.73037255182862281799e-03) (37 3.90397384762763977051e-02) (38 9.74702760577201843262e-02) (39 1.39023885130882263184e-02) (40 -7.57466722279787063599e-03) (41 3.81579883396625518799e-02) (42 -8.97296797484159469604e-03) (43 5.28829433023929595947e-02) (44 4.61397692561149597168e-02) (45 8.99619087576866149902e-02) (46 -5.23891188204288482666e-02) (47 -2.39432360976934432983e-02) (48 -8.74933302402496337891e-02) (49 1.67176678776741027832e-01) (50 -5.77022833749651908875e-03) (51 8.12272205948829650879e-02) (52 1.08022250235080718994e-01) (53 1.94287635385990142822e-02) (54 7.17163085937500000000e-02) (55 8.02868753671646118164e-02) (56 -1.74159873276948928833e-02) (57 -2.09654886275529861450e-02) (58 2.90928203612565994263e-02) (59 -2.34900116920471191406e-02) (60 -4.10580858588218688965e-02) (61 1.22180595993995666504e-01) (62 1.12003244459629058838e-01) (63 -3.27432565391063690186e-02) (64 3.23870256543159484863e-02) (65 1.39231011271476745605e-02) (66 9.58202704787254333496e-02) (67 9.38629508018493652344e-02) (68 -2.08648703992366790771e-02) (69 9.89816635847091674805e-02) (70 1.52819246053695678711e-01) (71 9.52129159122705459595e-03) (72 -1.04057472199201583862e-02) (73 8.87085497379302978516e-02) (74 2.20976248383522033691e-01) (75 1.54250830411911010742e-01) (76 1.70585110783576965332e-01) (77 3.04511263966560363770e-02) (78 1.34479790925979614258e-01) (79 6.01655393838882446289e-02) (80 6.72545582056045532227e-02) (81 1.93412244319915771484e-01) (82 6.91460594534873962402e-02) (83 9.13437753915786743164e-02) (84 3.69064994156360626221e-02) (85 2.75968946516513824463e-02) (86 -4.86093685030937194824e-02) (87 9.67257097363471984863e-02) (88 1.06367856264114379883e-01) (89 1.32673755288124084473e-01) (90 1.36734127998352050781e-01) (91 7.45112821459770202637e-02) (92 1.16071991622447967529e-01) (93 3.27598787844181060791e-02) (94 2.01811447739601135254e-01) (95 -6.71168863773345947266e-02) (96 1.49469077587127685547e-01) (97 5.15183396637439727783e-02) (98 1.77864730358123779297e-01) (99 -2.77649126946926116943e-02) (100 3.61484475433826446533e-02) (101 8.27444046735763549805e-02) (102 6.45900145173072814941e-02) (103 6.84062540531158447266e-02) (104 7.96949584037065505981e-03) (105 5.37869781255722045898e-02) (106 -3.62966768443584442139e-02) (107 1.78232043981552124023e-02) (108 9.79790836572647094727e-02) (109 1.81792929768562316895e-01) (110 -1.74340996891260147095e-02) (111 1.96971178054809570312e-01) (112 1.27820834517478942871e-01) (113 1.86207130551338195801e-01) (114 5.68109974265098571777e-02) (115 1.92228704690933227539e-01) (116 1.28005176782608032227e-01) (117 8.30914825201034545898e-02) (118 1.49479165673255920410e-01) (119 9.22728925943374633789e-02) (120 -1.94589719176292419434e-02) (121 1.10772904008626937866e-02) (122 -2.71847117692232131958e-02) (123 1.29503279924392700195e-01) (124 1.00966170430183410645e-01) (125 1.56086757779121398926e-01) (126 1.03697896003723144531e-01) (127 4.33455705642700195312e-02) (128 5.20681560039520263672e-01) (0 6.63857087492942810059e-02) (1 1.25010937452316284180e-01) (2 2.14870929718017578125e-01) (3 2.61927191168069839478e-02) (4 7.17016980051994323730e-02) (5 6.46570026874542236328e-02) (6 2.69605610519647598267e-02) (7 7.48329311609268188477e-02) (8 6.44322112202644348145e-02) (9 1.11700251698493957520e-01) (10 4.05379459261894226074e-02) (11 3.86217422783374786377e-02) (12 7.42598921060562133789e-02) (13 -7.68997613340616226196e-03) (14 1.50240391492843627930e-01) (15 2.33183383941650390625e-01) (16 4.05883714556694030762e-02) (17 1.93384721875190734863e-01) (18 -2.78008989989757537842e-02) (19 2.23620906472206115723e-01) (20 8.25055092573165893555e-02) (21 7.44598060846328735352e-02) (22 1.22409455478191375732e-01) (23 1.45839765667915344238e-01) (24 9.03316661715507507324e-02) (25 1.02660685777664184570e-01) (26 9.21888276934623718262e-02) (27 4.49935495853424072266e-02) (28 6.75620660185813903809e-02) (29 4.14972975850105285645e-02) (30 1.33545607328414916992e-01) (31 -4.58378009498119354248e-02) (32 2.59040631353855133057e-02) (33 -2.47395224869251251221e-02) (34 1.80732160806655883789e-01) (35 4.37681972980499267578e-02) (36 8.63408222794532775879e-02) (37 1.20852455496788024902e-01) (38 1.52663320302963256836e-01) (39 1.82075574994087219238e-01) (40 7.27396234869956970215e-02) (41 -1.55130038037896156311e-02) (42 -3.43701615929603576660e-03) (43 6.52027269825339317322e-03) (44 1.80540662258863449097e-02) (45 1.02277450263500213623e-01) (46 4.04427535831928253174e-02) (47 1.26902535557746887207e-01) (48 -2.28995680809020996094e-02) (49 2.75030314922332763672e-01) (50 3.23032625019550323486e-02) (51 9.48762223124504089355e-02) (52 1.35753810405731201172e-01) (53 3.22420746088027954102e-02) (54 1.16757132112979888916e-01) (55 1.01589411497116088867e-01) (56 1.25911220908164978027e-01) (57 -1.27494279295206069946e-02) (58 -6.30680918693542480469e-02) (59 2.54149921238422393799e-02) (60 1.25179484486579895020e-01) (61 -8.34081508219242095947e-03) (62 6.21952004730701446533e-02) (63 9.22625958919525146484e-02) (64 -1.62386689335107803345e-02) (65 -2.98137981444597244263e-02) (66 3.68405766785144805908e-02) (67 3.65001149475574493408e-02) (68 4.55673970282077789307e-02) (69 1.61603718996047973633e-01) (70 1.31106704473495483398e-01) (71 1.14761345088481903076e-01) (72 1.62314683198928833008e-01) (73 1.67117372155189514160e-01) (74 1.93736385554075241089e-02) (75 1.70605182647705078125e-02) (76 -6.14339224994182586670e-02) (77 5.00456653535366058350e-02) (78 9.74842086434364318848e-02) (79 1.28134638071060180664e-01) (80 -6.83236122131347656250e-02) (81 2.59387977421283721924e-02) (82 9.73218902945518493652e-02) (83 1.98916211724281311035e-01) (84 4.57758381962776184082e-02) (85 3.54415811598300933838e-02) (86 -9.25069954246282577515e-03) (87 -5.13930469751358032227e-02) (88 5.46830631792545318604e-02) (89 4.68110032379627227783e-02) (90 -3.03687676787376403809e-02) (91 -1.53907358646392822266e-01) (92 7.05247446894645690918e-02) (93 7.55845988169312477112e-03) (94 1.27224206924438476562e-01) (95 -1.34439066052436828613e-01) (96 -2.09002364426851272583e-02) (97 -2.31529958546161651611e-02) (98 1.80373176932334899902e-01) (99 3.19618284702301025391e-02) (100 3.36907692253589630127e-02) (101 -1.58774815499782562256e-02) (102 2.65564955770969390869e-02) (103 4.83658686280250549316e-02) (104 8.94281342625617980957e-02) (105 5.42939156293869018555e-02) (106 3.43905463814735412598e-02) (107 1.30229651927947998047e-01) (108 2.88325711153447628021e-03) (109 1.08327962458133697510e-01) (110 -5.42819984257221221924e-02) (111 2.64091882854700088501e-02) (112 7.60128423571586608887e-02) (113 7.86278620362281799316e-02) (114 -2.51248776912689208984e-02) (115 -2.39482838660478591919e-02) (116 -9.37623158097267150879e-03) (117 1.22339382767677307129e-01) (118 5.98801784217357635498e-02) (119 1.61123260855674743652e-01) (120 1.41376834362745285034e-02) (121 4.17878627777099609375e-02) (122 -2.86820400506258010864e-02) (123 1.76532894372940063477e-01) (124 -3.33980470895767211914e-02) (125 1.04960671160370111465e-03) (126 -1.42770126461982727051e-01) (127 -1.04599550366401672363e-01) (128 6.89051330089569091797e-01) (0 -8.33171978592872619629e-03) (1 6.55175521969795227051e-02) (2 1.48208633065223693848e-01) (3 5.12509196996688842773e-02) (4 4.00789640843868255615e-02) (5 -5.10092340409755706787e-02) (6 -5.51540516316890716553e-02) (7 -1.83917105197906494141e-01) (8 -1.88672959804534912109e-01) (9 -1.24318324029445648193e-01) (10 -9.29907783865928649902e-02) (11 6.37901797890663146973e-02) (12 -7.26005015894770622253e-03) (13 9.36132371425628662109e-02) (14 -1.64315924048423767090e-02) (15 5.55384568870067596436e-02) (16 -3.40374908410012722015e-03) (17 2.24502179771661758423e-02) (18 -2.15223561972379684448e-02) (19 -3.17999161779880523682e-02) (20 -2.67992112785577774048e-02) (21 1.90467368811368942261e-02) (22 -3.50099205970764160156e-02) (23 -2.74915937334299087524e-02) (24 6.06277659535408020020e-02) (25 4.91998158395290374756e-02) (26 3.58045287430286407471e-02) (27 -7.55131291225552558899e-03) (28 5.97136206924915313721e-02) (29 -1.59577429294586181641e-02) (30 5.50919435918331146240e-02) (31 -3.78839112818241119385e-02) (32 2.97694969922304153442e-02) (33 -5.06706461310386657715e-02) (34 -9.66976024210453033447e-03) (35 -1.43004402518272399902e-01) (36 -6.95375651121139526367e-02) (37 8.51520374417304992676e-02) (38 -1.17389652878046035767e-02) (39 -3.65554168820381164551e-02) (40 -4.26884479820728302002e-02) (41 1.27928219735622406006e-02) (42 1.56502760946750640869e-02) (43 1.08219664543867111206e-02) (44 -1.62313878536224365234e-01) (45 -4.34478223323822021484e-02) (46 -1.43460497260093688965e-01) (47 8.86932909488677978516e-02) (48 4.20986674726009368896e-02) (49 -1.02966101840138435364e-02) (50 -3.43701094388961791992e-02) (51 1.49027198553085327148e-01) (52 9.51088815927505493164e-02) (53 -6.62990212440490722656e-02) (54 -1.09297536313533782959e-01) (55 -2.87392456084489822388e-02) (56 -7.24601373076438903809e-02) (57 -5.45550845563411712646e-02) (58 -8.19748491048812866211e-02) (59 -3.66288237273693084717e-02) (60 6.29496350884437561035e-02) (61 -6.37440383434295654297e-02) (62 2.41912957280874252319e-02) (63 -5.66229447722434997559e-02) (64 1.75451397895812988281e-01) (65 9.14170145988464355469e-02) (66 7.00877830386161804199e-02) (67 -2.69459914416074752808e-02) (68 8.09829905629158020020e-02) (69 3.09149045497179031372e-02) (70 -7.64592662453651428223e-02) (71 -1.47296592593193054199e-01) (72 -1.72504350543022155762e-01) (73 -4.20861840248107910156e-01) (74 -1.93799436092376708984e-01) (75 -9.68080088496208190918e-02) (76 3.92168527469038963318e-03) (77 -3.49949039518833160400e-02) (78 -7.38490931689739227295e-03) (79 -2.24618762731552124023e-02) (80 -1.05928890407085418701e-01) (81 -4.07490041106939315796e-03) (82 -1.12902387976646423340e-01) (83 -1.82675763964653015137e-01) (84 -7.84410014748573303223e-02) (85 -1.27214446663856506348e-01) (86 -2.00079113245010375977e-01) (87 -4.82949204742908477783e-02) (88 -8.10569524765014648438e-02) (89 -6.40326738357543945312e-02) (90 -1.58224686980247497559e-01) (91 -9.62426792830228805542e-03) (92 -6.88119754195213317871e-02) (93 -1.33502498269081115723e-01) (94 -1.62625938653945922852e-01) (95 -1.32225587964057922363e-01) (96 -2.00228556990623474121e-01) (97 -8.47251266241073608398e-02) (98 -1.27526730298995971680e-01) (99 -3.56674678623676300049e-02) (100 -9.83046889305114746094e-02) (101 -7.24673718214035034180e-02) (102 9.09987254999577999115e-04) (103 1.85552481561899185181e-02) (104 1.21072093024849891663e-02) (105 -2.15669665485620498657e-02) (106 -1.36994838714599609375e-01) (107 -1.60032287240028381348e-01) (108 -8.18286314606666564941e-02) (109 -6.21699728071689605713e-02) (110 9.56964120268821716309e-03) (111 -1.45624160766601562500e-01) (112 -2.71817203611135482788e-02) (113 -7.15225934982299804688e-02) (114 -3.03629860281944274902e-02) (115 4.35420498251914978027e-02) (116 6.29441663622856140137e-02) (117 -1.25549420714378356934e-01) (118 -3.45427781343460083008e-01) (119 -4.08153802156448364258e-01) (120 -8.48761722445487976074e-02) (121 -1.27170413732528686523e-01) (122 -7.83020034432411193848e-02) (123 -3.69719117879867553711e-02) (124 2.84660123288631439209e-02) (125 -1.27016738057136535645e-01) (126 1.54290869832038879395e-01) (127 4.82915826141834259033e-02) (128 2.93157733976840972900e-02) (0 -4.83791418373584747314e-02) (1 -3.98165732622146606445e-02) (2 3.62763255834579467773e-02) (3 8.80898311734199523926e-02) (4 -5.26691526174545288086e-02) (5 -4.22861389815807342529e-02) (6 -4.21353662386536598206e-03) (7 4.44950908422470092773e-02) (8 2.78375819325447082520e-02) (9 -5.08716590702533721924e-02) (10 6.80047050118446350098e-02) (11 4.88382391631603240967e-02) (12 -9.66980159282684326172e-02) (13 8.15259367227554321289e-02) (14 -6.20918758213520050049e-02) (15 1.64553940296173095703e-01) (16 -8.78075584769248962402e-02) (17 7.04061537981033325195e-02) (18 -6.62191584706306457520e-02) (19 5.80254495143890380859e-02) (20 7.54784196615219116211e-02) (21 4.38722735270857810974e-03) (22 -3.84692624211311340332e-02) (23 -1.00169584155082702637e-01) (24 6.55372813344001770020e-02) (25 8.28263983130455017090e-02) (26 9.36126429587602615356e-03) (27 -7.46314525604248046875e-02) (28 4.77942265570163726807e-02) (29 -1.03555038571357727051e-01) (30 1.69683936983346939087e-02) (31 5.55560663342475891113e-02) (32 -1.31997326388955116272e-02) (33 -1.38623997569084167480e-01) (34 1.19537606835365295410e-01) (35 4.33335034176707267761e-03) (36 -6.47369306534528732300e-03) (37 1.98076348751783370972e-02) (38 7.94331077486276626587e-03) (39 -4.01773042976856231689e-02) (40 9.87055227160453796387e-02) (41 -5.67196086049079895020e-02) (42 5.00724352896213531494e-02) (43 -8.46613943576812744141e-02) (44 -7.78229683637619018555e-02) (45 -2.55667772144079208374e-02) (46 -1.66642349213361740112e-02) (47 -2.26419828832149505615e-02) (48 -1.22317917644977569580e-01) (49 2.49209448695182800293e-01) (50 7.27225467562675476074e-02) (51 1.01459220051765441895e-01) (52 -4.39035482704639434814e-02) (53 6.32913783192634582520e-03) (54 -7.48183429241180419922e-02) (55 -5.14882057905197143555e-02) (56 -7.29158073663711547852e-02) (57 -1.99717469513416290283e-02) (58 -6.79076388478279113770e-02) (59 -1.23408578336238861084e-01) (60 4.45604026317596435547e-02) (61 8.00578370690345764160e-02) (62 -8.13722535967826843262e-02) (63 -8.37927237153053283691e-02) (64 8.07907953858375549316e-02) (65 1.11403487622737884521e-01) (66 7.43937045335769653320e-02) (67 2.13673263788223266602e-02) (68 6.50450289249420166016e-02) (69 -1.65126342326402664185e-02) (70 1.63400601595640182495e-02) (71 3.20545136928558349609e-02) (72 4.79368902742862701416e-02) (73 4.08805906772613525391e-02) (74 1.36974394321441650391e-01) (75 1.05825982987880706787e-01) (76 8.00120756030082702637e-02) (77 7.62512395158410072327e-03) (78 -3.32635976374149322510e-02) (79 1.80301964282989501953e-01) (80 -3.67766059935092926025e-02) (81 -4.42976802587509155273e-02) (82 6.02861642837524414062e-02) (83 7.89447799324989318848e-02) (84 6.04182071983814239502e-02) (85 8.92665982246398925781e-02) (86 6.19911812245845794678e-02) (87 9.84071567654609680176e-02) (88 1.80355980992317199707e-02) (89 2.22849138081073760986e-02) (90 1.16223439574241638184e-01) (91 -8.79788249731063842773e-02) (92 -2.95398775488138198853e-02) (93 1.02473683655261993408e-01) (94 -9.31911636143922805786e-03) (95 -7.74795785546302795410e-02) (96 7.22984448075294494629e-02) (97 7.64210447669029235840e-02) (98 6.19601570069789886475e-02) (99 2.98302639275789260864e-02) (100 -2.93518975377082824707e-02) (101 -6.92941620945930480957e-02) (102 -2.71125752478837966919e-02) (103 1.23667187988758087158e-01) (104 7.66241475939750671387e-02) (105 1.07854343950748443604e-01) (106 9.76730603724718093872e-03) (107 1.04575380682945251465e-02) (108 -8.68754275143146514893e-03) (109 9.23678427934646606445e-02) (110 -6.03421218693256378174e-02) (111 9.60930902510881423950e-03) (112 8.23165252804756164551e-02) (113 1.92295014858245849609e-01) (114 1.38340786099433898926e-01) (115 8.30536428838968276978e-03) (116 4.78084944188594818115e-02) (117 1.12469390034675598145e-01) (118 1.68514978140592575073e-02) (119 1.17827817797660827637e-01) (120 -5.62578700482845306396e-02) (121 -9.52705517411231994629e-02) (122 7.73563981056213378906e-02) (123 -2.14810967445373535156e-02) (124 9.97334718704223632812e-02) (125 -3.99092957377433776855e-02) (126 4.50352067127823829651e-03) (127 5.51270693540573120117e-02) (128 3.01805675029754638672e-01) (0 3.18222194910049438477e-01) (1 3.16844433546066284180e-01) (2 3.24293702840805053711e-01) (3 2.31089577078819274902e-01) (4 8.23204815387725830078e-02) (5 1.92371487617492675781e-01) (6 2.97523528337478637695e-01) (7 3.95167857408523559570e-01) (8 4.69979107379913330078e-01) (9 1.43035322427749633789e-01) (10 1.41260892152786254883e-01) (11 1.54063135385513305664e-01) (12 2.89671003818511962891e-01) (13 4.59761649370193481445e-01) (14 3.19503724575042724609e-01) (15 2.48078495264053344727e-01) (16 5.15455543994903564453e-01) (17 4.56210404634475708008e-01) (18 5.24543285369873046875e-01) (19 3.32528114318847656250e-01) (20 2.84089386463165283203e-01) (21 3.29353094100952148438e-01) (22 5.99543273448944091797e-01) (23 5.54323613643646240234e-01) (24 2.73443162441253662109e-01) (25 2.40718126296997070312e-01) (26 4.18055713176727294922e-01) (27 5.55942595005035400391e-01) (28 5.90758383274078369141e-01) (29 3.96827727556228637695e-01) (30 1.37754425406455993652e-01) (31 5.72143554687500000000e-01) (32 4.43844944238662719727e-01) (33 6.36226832866668701172e-01) (34 1.10303290188312530518e-01) (35 2.89058685302734375000e-01) (36 6.27286314964294433594e-01) (37 6.52006924152374267578e-01) (38 4.80650603771209716797e-01) (39 2.60174751281738281250e-01) (40 3.84041875600814819336e-01) (41 6.64688646793365478516e-01) (42 5.10429799556732177734e-01) (43 4.46637570858001708984e-01) (44 3.44944953918457031250e-01) (45 2.50011414289474487305e-01) (46 6.06157362461090087891e-01) (47 4.92383062839508056641e-01) (48 4.43984568119049072266e-01) (49 1.38115987181663513184e-01) (50 3.21030676364898681641e-01) (51 4.66787666082382202148e-01) (52 4.18532222509384155273e-01) (53 2.28658840060234069824e-01) (54 1.06657810509204864502e-01) (55 1.53647541999816894531e-01) (56 4.52298283576965332031e-01) (57 4.55668002367019653320e-01) (58 2.52659291028976440430e-01) (59 1.39688387513160705566e-01) (60 1.09730675816535949707e-01) (61 3.79496097564697265625e-01) (62 4.66211110353469848633e-01) (63 3.93482506275177001953e-01) (64 -9.35930386185646057129e-02) (65 5.54789543151855468750e-01) (66 8.00258874893188476562e-01) (67 5.54307401180267333984e-01) (68 4.00894492864608764648e-01) (69 4.14876788854598999023e-01) (70 -7.24715590476989746094e-01) (71 -7.51926362514495849609e-01) (72 -7.24295854568481445312e-01) (73 -1.13799802958965301514e-01) (74 5.19158005714416503906e-01) (75 3.45699936151504516602e-01) (76 5.76012074947357177734e-01) (77 4.75179016590118408203e-01) (78 7.47925639152526855469e-01) (79 9.73440259695053100586e-02) (80 2.42693603038787841797e-01) (81 3.98212403059005737305e-01) (82 4.93432104587554931641e-01) (83 5.83949089050292968750e-01) (84 5.42721271514892578125e-01) (85 3.93804550170898437500e-01) (86 -7.13008105754852294922e-01) (87 4.62579548358917236328e-01) (88 -6.89773634076118469238e-02) (89 -1.43623217940330505371e-01) (90 2.76118099689483642578e-01) (91 2.52926141023635864258e-01) (92 3.08828443288803100586e-01) (93 5.15752136707305908203e-01) (94 5.69616556167602539062e-01) (95 6.16647899150848388672e-01) (96 2.13374584913253784180e-01) (97 7.04129517078399658203e-01) (98 6.16381704807281494141e-01) (99 5.13246893882751464844e-01) (100 3.58288139104843139648e-01) (101 3.45215231180191040039e-01) (102 4.02935922145843505859e-01) (103 -3.70020717382431030273e-02) (104 -1.24114274978637695312e-01) (105 4.77080762386322021484e-01) (106 -8.71722280979156494141e-01) (107 4.21740293502807617188e-01) (108 5.68757295608520507812e-01) (109 5.75184881687164306641e-01) (110 6.21951818466186523438e-01) (111 3.36799770593643188477e-01) (112 3.15376579761505126953e-01) (113 1.99608609080314636230e-01) (114 6.31373405456542968750e-01) (115 4.64041769504547119141e-01) (116 4.09537971019744873047e-01) (117 4.82943922281265258789e-01) (118 4.12284463644027709961e-01) (119 -1.05159707367420196533e-01) (120 -7.92387127876281738281e-01) (121 -8.00266802310943603516e-01) (122 -8.44770848751068115234e-01) (123 3.44168514013290405273e-01) (124 3.63103866577148437500e-01) (125 5.78655421733856201172e-01) (126 7.03204154968261718750e-01) (127 7.40088343620300292969e-01) (128 8.18289518356323242188e-01) (0 1.67765408754348754883e-01) (1 1.90369188785552978516e-01) (2 1.17834202945232391357e-01) (3 9.40760821104049682617e-02) (4 -1.02264601737260818481e-02) (5 1.65490597486495971680e-01) (6 2.06166386604309082031e-01) (7 2.87414282560348510742e-01) (8 2.94833511114120483398e-01) (9 1.00800566375255584717e-01) (10 7.53256827592849731445e-02) (11 8.67434740066528320312e-02) (12 2.60882169008255004883e-01) (13 1.25182405114173889160e-01) (14 2.96402424573898315430e-01) (15 -1.16206072270870208740e-01) (16 2.33285769820213317871e-01) (17 9.91448014974594116211e-02) (18 2.98918992280960083008e-01) (19 1.47283539175987243652e-01) (20 2.70242661237716674805e-01) (21 2.49036312103271484375e-01) (22 3.39027315378189086914e-01) (23 1.65268987417221069336e-01) (24 2.53707975149154663086e-01) (25 2.95763432979583740234e-01) (26 2.85803943872451782227e-01) (27 2.85796225070953369141e-01) (28 2.05181211233139038086e-01) (29 3.22104632854461669922e-01) (30 6.13395683467388153076e-03) (31 3.85483235120773315430e-01) (32 3.01016032695770263672e-01) (33 3.78719896078109741211e-01) (34 1.41109456308186054230e-03) (35 1.85294777154922485352e-01) (36 2.09712058305740356445e-01) (37 3.16818952560424804688e-01) (38 3.16020756959915161133e-01) (39 1.19292221963405609131e-01) (40 2.63622641563415527344e-01) (41 1.77068665623664855957e-01) (42 2.70391792058944702148e-01) (43 2.31820091605186462402e-01) (44 2.93472945690155029297e-01) (45 5.77923171222209930420e-02) (46 1.74542710185050964355e-01) (47 9.04087498784065246582e-02) (48 1.88443198800086975098e-01) (49 -8.31564962863922119141e-02) (50 3.15681040287017822266e-01) (51 2.02420637011528015137e-01) (52 1.67956069111824035645e-01) (53 1.28910943865776062012e-01) (54 2.28871420025825500488e-01) (55 2.81374841928482055664e-01) (56 2.68689036369323730469e-01) (57 2.61681109666824340820e-01) (58 1.68005079030990600586e-01) (59 2.27092236280441284180e-01) (60 5.68341650068759918213e-02) (61 1.60993173718452453613e-01) (62 1.10618062317371368408e-01) (63 2.37225174903869628906e-01) (64 9.76439118385314941406e-02) (65 3.28971028327941894531e-01) (66 1.97481721639633178711e-01) (67 2.89189964532852172852e-01) (68 1.17839768528938293457e-01) (69 1.04876607656478881836e-01) (70 2.00506612658500671387e-01) (71 1.08288146555423736572e-01) (72 1.66564494371414184570e-01) (73 8.63677710294723510742e-02) (74 1.36284992098808288574e-01) (75 7.24183544516563415527e-02) (76 1.90998956561088562012e-01) (77 1.82251662015914916992e-01) (78 1.45440220832824707031e-01) (79 9.41221714019775390625e-02) (80 2.34431594610214233398e-01) (81 1.28961130976676940918e-01) (82 2.63906925916671752930e-01) (83 1.64710611104965209961e-01) (84 1.87930360436439514160e-01) (85 1.78080126643180847168e-01) (86 2.49233156442642211914e-01) (87 1.12931266427040100098e-01) (88 7.56882280111312866211e-02) (89 2.57706101983785629272e-02) (90 6.09777010977268218994e-02) (91 2.77637720108032226562e-01) (92 1.92522585391998291016e-01) (93 2.65199184417724609375e-01) (94 5.93138821423053741455e-02) (95 4.03496921062469482422e-01) (96 2.72756814956665039062e-01) (97 3.55974406003952026367e-01) (98 1.52202993631362915039e-01) (99 1.03127397596836090088e-01) (100 8.72426927089691162109e-02) (101 2.11808562278747558594e-01) (102 7.44992718100547790527e-02) (103 1.14184528589248657227e-01) (104 1.43164217472076416016e-01) (105 2.22771719098091125488e-01) (106 2.49605238437652587891e-01) (107 2.49427765607833862305e-01) (108 1.25556021928787231445e-01) (109 3.13179381191730499268e-02) (110 2.67235308885574340820e-01) (111 2.58119314908981323242e-01) (112 2.01081708073616027832e-01) (113 4.00034710764884948730e-03) (114 1.81451916694641113281e-01) (115 2.47374892234802246094e-01) (116 2.96095550060272216797e-01) (117 9.52193364500999450684e-02) (118 6.04531988501548767090e-02) (119 7.04341009259223937988e-02) (120 1.37726113200187683105e-01) (121 1.53656259179115295410e-01) (122 2.15250447392463684082e-01) (123 2.13016748428344726562e-01) (124 8.26461911201477050781e-02) (125 1.48548975586891174316e-01) (126 2.67875432968139648438e-01) (127 3.57203334569931030273e-01) (128 4.36066016554832458496e-02) (0 -1.82874463498592376709e-02) (1 -1.10189713537693023682e-01) (2 8.22176188230514526367e-02) (3 2.86539103835821151733e-02) (4 -7.83294364809989929199e-02) (5 -9.52403694391250610352e-02) (6 -6.16699233651161193848e-02) (7 4.02163900434970855713e-02) (8 -1.31607323884963989258e-01) (9 -3.55664193630218505859e-02) (10 -4.09591495990753173828e-02) (11 -7.79407098889350891113e-02) (12 -1.11775770783424377441e-01) (13 -2.12415233254432678223e-02) (14 -7.13597536087036132812e-02) (15 3.95204834640026092529e-02) (16 -1.33220367133617401123e-02) (17 -3.56311388313770294189e-02) (18 -1.29765063524246215820e-01) (19 -1.02657362818717956543e-01) (20 -6.54257684946060180664e-02) (21 -8.10862407088279724121e-02) (22 -8.31349864602088928223e-02) (23 2.70961802452802658081e-02) (24 -7.86935538053512573242e-02) (25 -4.36948798596858978271e-02) (26 -9.30520743131637573242e-02) (27 -1.06628417968750000000e-01) (28 -6.90219998359680175781e-02) (29 3.30133400857448577881e-02) (30 8.43085423111915588379e-02) (31 -2.14518621563911437988e-01) (32 1.01254843175411224365e-01) (33 -2.15877398848533630371e-01) (34 1.57385300844907760620e-02) (35 -1.21426276862621307373e-01) (36 8.79106372594833374023e-02) (37 -1.34150177240371704102e-01) (38 -6.57177940011024475098e-02) (39 8.26522931456565856934e-02) (40 -1.12228058278560638428e-02) (41 -1.60618685185909271240e-02) (42 -1.54814168810844421387e-01) (43 -2.38214377313852310181e-02) (44 5.11582149192690849304e-03) (45 -4.28415127098560333252e-02) (46 1.93303488194942474365e-02) (47 3.24977971613407135010e-02) (48 -5.23955188691616058350e-02) (49 -9.11479815840721130371e-03) (50 -4.17607091367244720459e-03) (51 -5.62973916530609130859e-02) (52 -4.91734817624092102051e-02) (53 -8.69417265057563781738e-02) (54 4.92690205574035644531e-02) (55 -1.29348738119006156921e-02) (56 -6.33697733283042907715e-02) (57 2.20038704574108123779e-02) (58 -1.51423234492540359497e-02) (59 -5.54421916604042053223e-02) (60 4.96583729982376098633e-02) (61 -2.44325790554285049438e-02) (62 -3.60613502562046051025e-02) (63 5.13106659054756164551e-02) (64 5.19864112138748168945e-02) (65 1.01940214633941650391e-01) (66 -5.08950138464570045471e-03) (67 -2.10651382803916931152e-02) (68 8.40486735105514526367e-02) (69 -5.50514832139015197754e-02) (70 -3.55133973062038421631e-02) (71 -1.81486662477254867554e-02) (72 1.15917436778545379639e-01) (73 3.16416732966899871826e-02) (74 1.64940550923347473145e-01) (75 1.10438406467437744141e-01) (76 8.41415524482727050781e-02) (77 1.46946966648101806641e-01) (78 -8.63731745630502700806e-03) (79 6.00669160485267639160e-03) (80 8.32951813936233520508e-02) (81 1.27043724060058593750e-01) (82 -4.58482615649700164795e-02) (83 1.69744547456502914429e-02) (84 9.47105586528778076172e-02) (85 -3.36189903318881988525e-02) (86 1.04446254670619964600e-01) (87 2.73324851877987384796e-03) (88 1.85243219137191772461e-01) (89 1.28720432519912719727e-01) (90 1.77193462848663330078e-01) (91 1.50221511721611022949e-01) (92 5.68487402051687240601e-03) (93 1.05528190732002258301e-01) (94 6.62501975893974304199e-02) (95 -1.68462302535772323608e-02) (96 3.62316071987152099609e-02) (97 1.78497768938541412354e-02) (98 7.74339437484741210938e-02) (99 -2.12973798625171184540e-03) (100 1.29408597946166992188e-01) (101 1.63121730089187622070e-01) (102 1.53128847479820251465e-01) (103 1.30855962634086608887e-01) (104 1.06701729819178581238e-02) (105 4.91958484053611755371e-02) (106 -2.72075906395912170410e-02) (107 7.79284834861755371094e-02) (108 -3.78163680434226989746e-02) (109 3.50959300994873046875e-02) (110 6.34924396872520446777e-02) (111 -2.99973394721746444702e-02) (112 -5.37561029195785522461e-02) (113 1.65903806686401367188e-01) (114 1.23169245198369026184e-02) (115 -3.37082776241004467010e-04) (116 1.73238500952720642090e-01) (117 1.55232045799493789673e-02) (118 4.10825945436954498291e-02) (119 1.75426080822944641113e-01) (120 9.69434827566146850586e-02) (121 1.15960419178009033203e-01) (122 7.37188830971717834473e-02) (123 8.04873332381248474121e-02) (124 9.22335758805274963379e-02) (125 5.70299942046403884888e-03) (126 5.62736801803112030029e-02) (127 3.65591943264007568359e-02) (128 2.09637671709060668945e-01) (0 8.42084288597106933594e-01) (1 3.38306009769439697266e-01) (2 3.18387389183044433594e-01) (3 3.36437791585922241211e-01) (4 1.72994643449783325195e-01) (5 2.23990544676780700684e-01) (6 3.78732681274414062500e-01) (7 3.83953452110290527344e-01) (8 3.20853710174560546875e-01) (9 2.59593069553375244141e-01) (10 3.25805485248565673828e-01) (11 3.27781260013580322266e-01) (12 2.77336210012435913086e-01) (13 3.40226799249649047852e-01) (14 1.73167109489440917969e-01) (15 8.07328224182128906250e-02) (16 2.77072101831436157227e-01) (17 1.99626386165618896484e-01) (18 2.80057758092880249023e-01) (19 2.10397407412528991699e-01) (20 2.26299330592155456543e-01) (21 1.99902892112731933594e-01) (22 2.29454994201660156250e-01) (23 2.24429562687873840332e-01) (24 2.98285424709320068359e-01) (25 3.09320807456970214844e-01) (26 3.74981641769409179688e-01) (27 2.73363023996353149414e-01) (28 2.06673845648765563965e-01) (29 2.44793757796287536621e-01) (30 1.30949273705482482910e-01) (31 2.70123958587646484375e-01) (32 1.83448091149330139160e-01) (33 4.31293278932571411133e-01) (34 1.01481921970844268799e-01) (35 2.47319489717483520508e-01) (36 2.39402413368225097656e-01) (37 4.29753661155700683594e-01) (38 1.98168992996215820312e-01) (39 3.07351112365722656250e-01) (40 2.36424013972282409668e-01) (41 1.89885452389717102051e-01) (42 3.70429337024688720703e-01) (43 3.41751664876937866211e-01) (44 3.68300110101699829102e-01) (45 2.91654974222183227539e-01) (46 2.49885216355323791504e-01) (47 2.35802248120307922363e-01) (48 3.91616851091384887695e-01) (49 8.38994607329368591309e-02) (50 2.86569058895111083984e-01) (51 1.69307246804237365723e-01) (52 2.89061367511749267578e-01) (53 2.82183557748794555664e-01) (54 2.03769430518150329590e-01) (55 1.88517659902572631836e-01) (56 3.21124851703643798828e-01) (57 2.98658370971679687500e-01) (58 2.71432697772979736328e-01) (59 2.93473243713378906250e-01) (60 2.47931271791458129883e-01) (61 2.84348547458648681641e-01) (62 3.39160263538360595703e-01) (63 3.48718822002410888672e-01) (64 8.52392315864562988281e-01) (65 9.41137254238128662109e-01) (66 7.86898374557495117188e-01) (67 3.92266750335693359375e-01) (68 3.94155681133270263672e-01) (69 2.57977783679962158203e-01) (70 3.81278842687606811523e-01) (71 3.66105407476425170898e-01) (72 2.42666929960250854492e-01) (73 2.77642309665679931641e-01) (74 2.07809835672378540039e-01) (75 1.84064775705337524414e-01) (76 2.99535691738128662109e-01) (77 2.68889874219894409180e-01) (78 2.98415690660476684570e-01) (79 1.43267840147018432617e-01) (80 3.72976690530776977539e-01) (81 2.46438369154930114746e-01) (82 2.99124538898468017578e-01) (83 3.52075845003128051758e-01) (84 3.42061281204223632812e-01) (85 2.98080444335937500000e-01) (86 2.80015468597412109375e-01) (87 2.96400070190429687500e-01) (88 4.06247228384017944336e-01) (89 2.89629608392715454102e-01) (90 4.34139817953109741211e-01) (91 3.65954458713531494141e-01) (92 2.39035844802856445312e-01) (93 4.22342956066131591797e-01) (94 2.69964784383773803711e-01) (95 4.44434195756912231445e-01) (96 9.12502527236938476562e-01) (97 3.92713278532028198242e-01) (98 3.42896044254302978516e-01) (99 4.00935530662536621094e-01) (100 3.59863430261611938477e-01) (101 3.57255697250366210938e-01) (102 2.89335638284683227539e-01) (103 1.89493015408515930176e-01) (104 2.45559096336364746094e-01) (105 3.55804711580276489258e-01) (106 3.15943151712417602539e-01) (107 2.64381021261215209961e-01) (108 3.74244093894958496094e-01) (109 3.30091059207916259766e-01) (110 3.58140379190444946289e-01) (111 3.20060312747955322266e-01) (112 4.43652480840682983398e-01) (113 2.75331646203994750977e-01) (114 2.76487231254577636719e-01) (115 3.35222780704498291016e-01) (116 3.10272455215454101562e-01) (117 2.32709527015686035156e-01) (118 3.35281521081924438477e-01) (119 2.15671837329864501953e-01) (120 1.91449299454689025879e-01) (121 4.54792559146881103516e-01) (122 3.74725729227066040039e-01) (123 2.35968917608261108398e-01) (124 3.66939812898635864258e-01) (125 2.21589297056198120117e-01) (126 9.31022226810455322266e-01) (127 8.78225684165954589844e-01) (128 1.11047618091106414795e-01) (0 1.80925846099853515625e-01) (1 1.41239121556282043457e-01) (2 8.95854458212852478027e-02) (3 1.44550368189811706543e-01) (4 2.15553253889083862305e-01) (5 2.20941632986068725586e-01) (6 2.89863049983978271484e-01) (7 1.65943160653114318848e-01) (8 2.11746469140052795410e-01) (9 1.35543748736381530762e-01) (10 6.92049115896224975586e-02) (11 1.54104828834533691406e-01) (12 1.59326195716857910156e-01) (13 2.01678544282913208008e-01) (14 1.91456511616706848145e-01) (15 2.48128361999988555908e-02) (16 1.53576731681823730469e-01) (17 4.95194606482982635498e-02) (18 1.76018625497817993164e-01) (19 6.44979029893875122070e-02) (20 2.81487911939620971680e-01) (21 1.90001010894775390625e-01) (22 2.43492946028709411621e-01) (23 2.89173543453216552734e-01) (24 1.68471455574035644531e-01) (25 2.50466853380203247070e-01) (26 2.48367324471473693848e-01) (27 2.31437027454376220703e-01) (28 2.15657681226730346680e-01) (29 1.89126297831535339355e-01) (30 9.15007442235946655273e-02) (31 1.88610747456550598145e-01) (32 2.10112646222114562988e-01) (33 2.08227679133415222168e-01) (34 -6.37324154376983642578e-02) (35 2.03904360532760620117e-01) (36 2.03215360641479492188e-01) (37 2.08487629890441894531e-01) (38 2.36298128962516784668e-01) (39 1.30703389644622802734e-01) (40 2.65829652547836303711e-01) (41 2.66484886407852172852e-01) (42 2.35282838344573974609e-01) (43 2.58353888988494873047e-01) (44 1.69568553566932678223e-01) (45 1.29650399088859558105e-01) (46 2.71377176046371459961e-01) (47 1.33726015686988830566e-01) (48 3.24417889118194580078e-01) (49 -1.48498058319091796875e-01) (50 3.22304964065551757812e-01) (51 2.44728341698646545410e-01) (52 2.55072087049484252930e-01) (53 1.88894554972648620605e-01) (54 1.85785636305809020996e-01) (55 2.06839635968208312988e-01) (56 1.58084377646446228027e-01) (57 2.02271848917007446289e-01) (58 3.24578851461410522461e-01) (59 3.50024104118347167969e-01) (60 2.29457154870033264160e-01) (61 1.87504902482032775879e-01) (62 5.43713681399822235107e-02) (63 1.52713730931282043457e-01) (64 2.59855687618255615234e-01) (65 1.10226936638355255127e-01) (66 2.23168358206748962402e-01) (67 3.49660515785217285156e-02) (68 1.13191112875938415527e-01) (69 8.42679440975189208984e-02) (70 4.16177958250045776367e-02) (71 1.22681714594364166260e-01) (72 5.45746088027954101562e-02) (73 1.18339136242866516113e-01) (74 -3.10040209442377090454e-02) (75 1.01571768522262573242e-01) (76 1.41010597348213195801e-01) (77 -2.21263933926820755005e-02) (78 1.91045515239238739014e-02) (79 -2.24589943885803222656e-01) (80 3.83809283375740051270e-02) (81 -1.00027481094002723694e-02) (82 1.13149188458919525146e-01) (83 5.78586347401142120361e-02) (84 1.11038222908973693848e-01) (85 1.77121162414550781250e-02) (86 1.25797346234321594238e-01) (87 2.09761545062065124512e-01) (88 9.59553271532058715820e-02) (89 1.22983701527118682861e-01) (90 2.00750365853309631348e-01) (91 9.70285087823867797852e-02) (92 2.01293975114822387695e-01) (93 2.05080006271600723267e-02) (94 8.00956040620803833008e-02) (95 1.46957829594612121582e-01) (96 6.42118602991104125977e-02) (97 1.66594311594963073730e-01) (98 4.78505380451679229736e-02) (99 2.04679384827613830566e-01) (100 2.20353249460458755493e-02) (101 2.02638298273086547852e-01) (102 8.97452309727668762207e-02) (103 4.63810414075851440430e-02) (104 1.03026948869228363037e-01) (105 1.44131883978843688965e-01) (106 2.35213235020637512207e-01) (107 3.75495776534080505371e-02) (108 1.15947976708412170410e-01) (109 -4.49461676180362701416e-02) (110 1.86043336987495422363e-01) (111 1.18741370737552642822e-01) (112 5.62517419457435607910e-02) (113 -3.06202858686447143555e-01) (114 6.08356930315494537354e-02) (115 1.26905933022499084473e-01) (116 5.87056018412113189697e-02) (117 1.16756319999694824219e-01) (118 6.00752942264080047607e-02) (119 1.15838833153247833252e-01) (120 9.18143689632415771484e-02) (121 1.68219149112701416016e-01) (122 -9.34488052735105156898e-05) (123 6.90918266773223876953e-02) (124 1.22455365955829620361e-01) (125 1.67152717709541320801e-01) (126 2.30396494269371032715e-01) (127 2.44742482900619506836e-01) (128 -5.34547507762908935547e-01) (0 1.26907020807266235352e-01) (1 2.00603783130645751953e-01) (2 -6.60284534096717834473e-02) (3 4.44067306816577911377e-02) (4 3.31513732671737670898e-02) (5 1.45572081208229064941e-01) (6 1.78229928016662597656e-01) (7 2.29761540889739990234e-01) (8 1.69620081782341003418e-01) (9 5.74538204818964004517e-03) (10 1.05546735227108001709e-01) (11 1.21548004448413848877e-01) (12 1.43186479806900024414e-01) (13 -2.54558399319648742676e-02) (14 1.69560298323631286621e-01) (15 5.81649951636791229248e-02) (16 1.25871762633323669434e-01) (17 9.18146744370460510254e-02) (18 6.79853856563568115234e-02) (19 3.43006253242492675781e-02) (20 9.12522748112678527832e-02) (21 1.83397069573402404785e-01) (22 1.63098335266113281250e-01) (23 1.74435265362262725830e-02) (24 1.67247474193572998047e-01) (25 -1.26972282305359840393e-02) (26 1.13911353051662445068e-01) (27 1.28291711211204528809e-01) (28 -8.66469740867614746094e-03) (29 1.45887523889541625977e-01) (30 1.53718233108520507812e-01) (31 1.63754820823669433594e-01) (32 8.25486257672309875488e-02) (33 1.29506945610046386719e-01) (34 1.14387601613998413086e-01) (35 1.82012200355529785156e-01) (36 -6.38942560181021690369e-03) (37 1.11475855112075805664e-01) (38 1.26661136746406555176e-01) (39 1.11350186169147491455e-01) (40 9.76929515600204467773e-02) (41 7.58372992277145385742e-02) (42 1.25281646847724914551e-01) (43 6.68631270527839660645e-02) (44 1.34628340601921081543e-01) (45 6.72248750925064086914e-02) (46 8.04355666041374206543e-02) (47 -3.16343200393021106720e-03) (48 4.14516925811767578125e-02) (49 -5.59368133544921875000e-02) (50 8.91573950648307800293e-02) (51 3.29686477780342102051e-02) (52 3.29930819571018218994e-02) (53 1.63064878433942794800e-02) (54 1.19851186871528625488e-01) (55 2.54004765301942825317e-02) (56 1.09227150678634643555e-01) (57 1.23063720762729644775e-01) (58 1.66299223899841308594e-01) (59 9.35326144099235534668e-02) (60 -4.38128551468253135681e-03) (61 1.33856505155563354492e-01) (62 5.14121130108833312988e-02) (63 1.58322378993034362793e-01) (64 -3.23413312435150146484e-02) (65 1.52888283133506774902e-01) (66 9.85127910971641540527e-02) (67 2.31497734785079956055e-02) (68 -3.55097325518727302551e-03) (69 1.82471051812171936035e-02) (70 1.44154906272888183594e-01) (71 1.65703818202018737793e-01) (72 1.42096951603889465332e-01) (73 6.17801956832408905029e-02) (74 -5.64806945621967315674e-02) (75 4.76860217750072479248e-02) (76 1.66402116417884826660e-01) (77 2.56140455603599548340e-02) (78 9.31615829467773437500e-02) (79 -1.44196495413780212402e-01) (80 1.83147251605987548828e-01) (81 2.24107895046472549438e-02) (82 1.57742992043495178223e-01) (83 1.35988965630531311035e-01) (84 4.58620823919773101807e-02) (85 4.53619956970214843750e-02) (86 2.07418560981750488281e-01) (87 1.47506102919578552246e-01) (88 7.55800530314445495605e-02) (89 6.35132938623428344727e-02) (90 2.42959931492805480957e-02) (91 1.65380358695983886719e-01) (92 6.97518438100814819336e-02) (93 4.27773892879486083984e-02) (94 3.71794290840625762939e-02) (95 1.49048998951911926270e-01) (96 2.49797567725181579590e-01) (97 2.68329381942749023438e-01) (98 5.63955865800380706787e-02) (99 4.67987842857837677002e-02) (100 7.25377649068832397461e-02) (101 1.00454486906528472900e-01) (102 -8.26145987957715988159e-03) (103 -4.67098802328109741211e-02) (104 1.12486138939857482910e-01) (105 3.60131599009037017822e-02) (106 1.21706612408161163330e-01) (107 1.34806111454963684082e-01) (108 8.16754177212715148926e-02) (109 -1.02440044283866882324e-02) (110 1.83291509747505187988e-01) (111 3.69208119809627532959e-02) (112 9.78518202900886535645e-02) (113 -8.24339911341667175293e-02) (114 -2.20844708383083343506e-02) (115 7.39943012595176696777e-02) (116 1.07783623039722442627e-01) (117 1.63110584020614624023e-01) (118 -1.81953459978103637695e-02) (119 1.98477338999509811401e-02) (120 1.21328130364418029785e-01) (121 1.09781213104724884033e-01) (122 1.52767628431320190430e-01) (123 -5.68779185414314270020e-02) (124 9.19357314705848693848e-02) (125 6.75381273031234741211e-02) (126 6.16550967097282409668e-02) (127 1.46296158432960510254e-01) (128 -2.57191419601440429688e-01) (0 2.99102574586868286133e-01) (1 2.32024103403091430664e-01) (2 2.06415012478828430176e-01) (3 1.17507874965667724609e-01) (4 8.47491860389709472656e-01) (5 2.41282567381858825684e-01) (6 1.58581703901290893555e-01) (7 1.43242105841636657715e-01) (8 1.43033847212791442871e-01) (9 2.41508394479751586914e-01) (10 2.21832856535911560059e-01) (11 1.90332472324371337891e-01) (12 1.49909630417823791504e-01) (13 7.96248435974121093750e-01) (14 1.77002429962158203125e-01) (15 7.94653058052062988281e-01) (16 2.41037651896476745605e-01) (17 1.52244523167610168457e-01) (18 1.49470329284667968750e-01) (19 2.89428561925888061523e-01) (20 1.73819392919540405273e-01) (21 2.26167470216751098633e-01) (22 1.71528607606887817383e-01) (23 8.86829718947410583496e-02) (24 2.05643549561500549316e-01) (25 1.74606025218963623047e-01) (26 7.92764246463775634766e-01) (27 2.38085940480232238770e-01) (28 2.86626964807510375977e-01) (29 1.77050903439521789551e-01) (30 1.42778038978576660156e-01) (31 2.30809152126312255859e-01) (32 1.88344210386276245117e-01) (33 2.48695984482765197754e-01) (34 1.20470814406871795654e-01) (35 1.60079747438430786133e-01) (36 2.50729829072952270508e-01) (37 9.62572172284126281738e-02) (38 7.54747152328491210938e-01) (39 8.84261727333068847656e-02) (40 8.49904417991638183594e-02) (41 1.48527577519416809082e-01) (42 1.77893370389938354492e-01) (43 1.94004476070404052734e-01) (44 1.26076251268386840820e-01) (45 1.58418059349060058594e-01) (46 1.35761767625808715820e-01) (47 1.55992612242698669434e-01) (48 1.51147410273551940918e-01) (49 7.95341849327087402344e-01) (50 7.28581175208091735840e-02) (51 6.25292360782623291016e-01) (52 1.58915430307388305664e-01) (53 2.36101523041725158691e-01) (54 1.12780563533306121826e-01) (55 1.20654493570327758789e-01) (56 1.19845606386661529541e-01) (57 1.19958154857158660889e-01) (58 1.64135172963142395020e-01) (59 1.11447505652904510498e-01) (60 7.84423768520355224609e-01) (61 1.34104505181312561035e-01) (62 7.37019777297973632812e-02) (63 8.61073210835456848145e-02) (64 8.13549101352691650391e-01) (65 1.08450792729854583740e-01) (66 8.02061975002288818359e-01) (67 6.63570284843444824219e-01) (68 7.08544433116912841797e-01) (69 7.16726422309875488281e-01) (70 6.70284390449523925781e-01) (71 7.17167615890502929688e-01) (72 8.34987699985504150391e-01) (73 7.56999909877777099609e-01) (74 3.03942322731018066406e-01) (75 6.80163323879241943359e-01) (76 